-1.35216 -1.63921 -1.68472 -1.67456 -1.66332 -1.65183 -1.64255 -1.6265 -1.61312 -1.59703 -1.58012 -1.56068 -1.54295 -1.51785 -1.48542 -1.44796 -1.40012 -1.34119 -1.26837 -1.16849 -1.02233 -0.843742 -0.63407 -0.412535 -0.205552 -0.0192543 0.139457 0.290385 0.422185 0.524803 0.583859 0.604546 0.605629 0.601329 0.57941 0.513416 0.401604 0.263582 0.118036 -0.038175 -0.214223 -0.404015 -0.600587 -0.78153 -0.941904 -1.06255 -1.14665 -1.2066 -1.27153 -1.30665 -1.32903 -1.34998 -1.356 -1.36899 -1.36851 -1.37184 -1.37963 -1.38263 -1.38816 -1.38026 -1.37539 -1.35824 -1.32702 -1.18617 -1.70298 -1.8583 -1.87022 -1.8486 -1.82707 -1.80331 -1.79087 -1.77722 -1.76381 -1.74735 -1.73207 -1.71406 -1.69891 -1.66981 -1.64177 -1.60819 -1.57306 -1.5299 -1.47539 -1.3941 -1.27702 -1.1219 -0.932507 -0.724938 -0.519201 -0.331777 -0.160874 0.00608549 0.166733 0.288293 0.359988 0.380126 0.380203 0.37568 0.346332 0.263834 0.132999 -0.0261147 -0.196388 -0.366532 -0.556963 -0.758003 -0.948595 -1.13402 -1.28882 -1.39767 -1.475 -1.53224 -1.57184 -1.60612 -1.63228 -1.66328 -1.6778 -1.69333 -1.70199 -1.71309 -1.71783 -1.73313 -1.7498 -1.76107 -1.77586 -1.79576 -1.80898 -1.74432 -1.71544 -1.82364 -1.81411 -1.78186 -1.75583 -1.7267 -1.7018 -1.68234 -1.66818 -1.65066 -1.63653 -1.6072 -1.58343 -1.55696 -1.528 -1.49634 -1.4653 -1.42272 -1.36942 -1.2936 -1.19159 -1.04915 -0.876798 -0.694802 -0.512564 -0.337118 -0.179781 -0.0225371 0.126551 0.241371 0.312102 0.324771 0.323275 0.322571 0.296414 0.213583 0.082536 -0.0697746 -0.228024 -0.390883 -0.565879 -0.743436 -0.92125 -1.09082 -1.22746 -1.32982 -1.39638 -1.44813 -1.48845 -1.51912 -1.5461 -1.56644 -1.58773 -1.61426 -1.62279 -1.63531 -1.64782 -1.66652 -1.68887 -1.68891 -1.74434 -1.77443 -1.81082 -1.78483 -1.6315 -1.73329 -1.70996 -1.66732 -1.62424 -1.58943 -1.5588 -1.52921 -1.51466 -1.48897 -1.45912 -1.43466 -1.41185 -1.38455 -1.35592 -1.31751 -1.28578 -1.24703 -1.19897 -1.13329 -1.03585 -0.908628 -0.752633 -0.587238 -0.426946 -0.275552 -0.134154 0.00914745 0.144224 0.252871 0.311961 0.318823 0.312234 0.316424 0.299244 0.229598 0.10823 -0.0355435 -0.173207 -0.32085 -0.475405 -0.636706 -0.797421 -0.94184 -1.05812 -1.15689 -1.22309 -1.26749 -1.30422 -1.33799 -1.375 -1.39858 -1.41592 -1.4299 -1.45416 -1.45499 -1.46923 -1.48235 -1.52656 -1.54537 -1.60205 -1.66964 -1.73185 -1.71328 -1.53147 -1.61898 -1.58639 -1.52951 -1.46732 -1.41973 -1.38343 -1.35676 -1.32396 -1.28975 -1.26235 -1.24528 -1.22094 -1.18671 -1.16127 -1.13589 -1.10045 -1.06142 -1.0184 -0.965248 -0.884897 -0.779873 -0.644602 -0.502597 -0.362393 -0.231215 -0.106951 0.0231525 0.147438 0.248266 0.301391 0.300196 0.295656 0.299479 0.293038 0.234469 0.121041 -0.00553176 -0.1358 -0.266037 -0.405399 -0.546342 -0.68636 -0.808875 -0.904903 -0.977914 -1.03172 -1.07363 -1.10853 -1.14443 -1.1767 -1.19505 -1.22006 -1.22465 -1.23968 -1.23619 -1.23682 -1.27683 -1.30581 -1.3681 -1.43509 -1.52415 -1.60627 -1.60769 -1.40802 -1.48363 -1.43903 -1.35263 -1.27733 -1.22888 -1.17816 -1.15014 -1.12394 -1.09065 -1.05433 -1.02386 -0.995562 -0.972354 -0.953746 -0.929421 -0.907403 -0.879495 -0.844121 -0.806143 -0.744223 -0.659781 -0.556111 -0.443153 -0.32721 -0.214837 -0.103945 0.0159684 0.131717 0.235254 0.280884 0.27521 0.263718 0.276428 0.271667 0.218248 0.113319 -0.0110132 -0.137051 -0.252622 -0.369552 -0.486464 -0.59202 -0.687397 -0.76529 -0.820726 -0.854946 -0.886372 -0.913417 -0.938619 -0.969618 -0.977226 -0.995641 -1.00347 -1.00772 -1.02196 -1.02045 -1.06789 -1.10898 -1.17079 -1.27032 -1.36344 -1.45572 -1.46818 -1.25798 -1.31828 -1.25807 -1.15923 -1.06686 -1.00847 -0.958043 -0.920841 -0.881486 -0.844788 -0.823215 -0.801244 -0.774736 -0.7515 -0.736021 -0.723943 -0.715407 -0.701309 -0.68669 -0.661336 -0.62231 -0.566277 -0.495585 -0.415976 -0.323425 -0.22766 -0.124064 -0.0119965 0.105555 0.203399 0.251822 0.238146 0.227115 0.245687 0.254076 0.202616 0.0957321 -0.029648 -0.151786 -0.260966 -0.357881 -0.445193 -0.525039 -0.587473 -0.636698 -0.669765 -0.690863 -0.700664 -0.712646 -0.725497 -0.745252 -0.755989 -0.782134 -0.787129 -0.793405 -0.794603 -0.805478 -0.846958 -0.902892 -0.967542 -1.06428 -1.16782 -1.2861 -1.30082 -1.08326 -1.13654 -1.05923 -0.953105 -0.855291 -0.775989 -0.720791 -0.673347 -0.631747 -0.604504 -0.581472 -0.565254 -0.548309 -0.53872 -0.530751 -0.527483 -0.520069 -0.523771 -0.528509 -0.531998 -0.522873 -0.493487 -0.454572 -0.40255 -0.342046 -0.260071 -0.166977 -0.051974 0.0634172 0.164935 0.217882 0.20948 0.207702 0.22456 0.233628 0.181014 0.0723173 -0.0687132 -0.19734 -0.295897 -0.381595 -0.440096 -0.485824 -0.515632 -0.528725 -0.536687 -0.534482 -0.529722 -0.524454 -0.523579 -0.534187 -0.54348 -0.553626 -0.566291 -0.569272 -0.578615 -0.59298 -0.639172 -0.696837 -0.773334 -0.861711 -0.96136 -1.0871 -1.10446 -0.896418 -0.942979 -0.843604 -0.727138 -0.625843 -0.539598 -0.483162 -0.436043 -0.402862 -0.376079 -0.356247 -0.344104 -0.335609 -0.33632 -0.340511 -0.345213 -0.354244 -0.373956 -0.402163 -0.429802 -0.445748 -0.450709 -0.441756 -0.422715 -0.386054 -0.325526 -0.232088 -0.115168 0.0205398 0.136807 0.192285 0.193074 0.195324 0.21314 0.215359 0.151262 0.0273323 -0.124081 -0.261801 -0.361094 -0.421456 -0.456289 -0.46297 -0.46228 -0.451586 -0.42636 -0.39101 -0.369711 -0.348256 -0.344596 -0.337441 -0.346851 -0.350936 -0.357396 -0.357207 -0.373346 -0.391839 -0.432091 -0.494165 -0.569705 -0.642014 -0.760877 -0.889834 -0.905857 -0.705988 -0.74205 -0.636481 -0.50834 -0.404326 -0.324672 -0.272069 -0.225697 -0.19058 -0.176618 -0.167342 -0.163122 -0.165409 -0.170647 -0.178963 -0.191517 -0.212901 -0.259645 -0.310727 -0.36463 -0.403447 -0.432652 -0.456301 -0.46108 -0.44495 -0.390203 -0.295552 -0.173202 -0.0374165 0.0875012 0.161325 0.179495 0.183069 0.200784 0.192617 0.118191 -0.0186622 -0.188833 -0.327245 -0.420795 -0.47526 -0.484374 -0.473132 -0.449093 -0.408465 -0.361186 -0.306706 -0.255604 -0.217802 -0.197902 -0.190076 -0.181334 -0.179826 -0.172205 -0.1705 -0.178033 -0.201089 -0.234125 -0.283882 -0.366445 -0.447121 -0.561337 -0.693753 -0.706287 -0.524081 -0.563708 -0.445779 -0.315517 -0.206026 -0.127426 -0.0755275 -0.0396966 -0.0103935 0.00304616 -0.00213108 -0.0144371 -0.0246754 -0.0408066 -0.0600142 -0.0893227 -0.136959 -0.205732 -0.269973 -0.337501 -0.390219 -0.44179 -0.479084 -0.506307 -0.499421 -0.453338 -0.3632 -0.234675 -0.0901694 0.045563 0.134139 0.168846 0.183284 0.198574 0.181755 0.0908068 -0.0700169 -0.23933 -0.390196 -0.482681 -0.530524 -0.53134 -0.506851 -0.466416 -0.411262 -0.353835 -0.276205 -0.205088 -0.137122 -0.101019 -0.0658581 -0.0481419 -0.0278445 -0.0167409 -0.00927199 -0.00756229 -0.0212618 -0.0511603 -0.0961483 -0.171959 -0.259306 -0.372836 -0.515668 -0.520656 -0.366148 -0.395547 -0.271657 -0.139709 -0.0407924 0.0375737 0.0854765 0.120993 0.134465 0.137638 0.12213 0.106728 0.0836392 0.0512144 0.00871762 -0.0474631 -0.116718 -0.205486 -0.285756 -0.360456 -0.426726 -0.48146 -0.523249 -0.55139 -0.54759 -0.51046 -0.420074 -0.289459 -0.140124 0.00822011 0.110606 0.16271 0.188295 0.201626 0.171585 0.0636965 -0.109369 -0.296043 -0.44551 -0.538468 -0.582264 -0.582207 -0.554735 -0.515782 -0.457073 -0.389912 -0.306821 -0.216593 -0.131071 -0.0603146 -0.000780784 0.0369769 0.0716763 0.100063 0.119111 0.127176 0.120513 0.0979791 0.061077 -0.0105572 -0.0930749 -0.204931 -0.35573 -0.357614 -0.225354 -0.25475 -0.124999 0.00404385 0.104658 0.176844 0.217587 0.247158 0.254203 0.244298 0.221826 0.191028 0.15475 0.102635 0.045697 -0.0389743 -0.138408 -0.240182 -0.339934 -0.424213 -0.494789 -0.546694 -0.589287 -0.606407 -0.598187 -0.550558 -0.463776 -0.331876 -0.173398 -0.0230191 0.0973239 0.164005 0.199924 0.21743 0.171316 0.040645 -0.147243 -0.339336 -0.497654 -0.584076 -0.626383 -0.631146 -0.61547 -0.582943 -0.532619 -0.461119 -0.369515 -0.262243 -0.148661 -0.0530174 0.02864 0.0913979 0.143781 0.17998 0.212216 0.227963 0.233278 0.214402 0.185324 0.121908 0.0391757 -0.0769605 -0.222257 -0.213627 -0.113523 -0.13567 -0.0185237 0.111239 0.21377 0.28012 0.320847 0.336603 0.342016 0.322424 0.292162 0.253405 0.20113 0.129341 0.0460147 -0.0696056 -0.181885 -0.303462 -0.418341 -0.512536 -0.581306 -0.629373 -0.661793 -0.666124 -0.650325 -0.593594 -0.49592 -0.358441 -0.203975 -0.0405422 0.0992746 0.180946 0.226412 0.234652 0.180884 0.0314056 -0.171374 -0.377149 -0.532071 -0.629764 -0.676582 -0.688489 -0.687952 -0.660008 -0.623638 -0.554277 -0.450816 -0.334532 -0.200976 -0.0777399 0.039048 0.122872 0.182914 0.237989 0.27363 0.305184 0.310689 0.301794 0.273479 0.227105 0.142319 0.0338239 -0.108224 -0.0982896 -0.0172959 -0.0387892 0.0854194 0.20732 0.301606 0.364173 0.394857 0.412095 0.406981 0.384205 0.345259 0.29541 0.229963 0.141918 0.0243349 -0.10291 -0.241182 -0.379018 -0.506546 -0.602349 -0.670815 -0.716814 -0.731143 -0.722912 -0.697453 -0.636349 -0.533016 -0.390383 -0.216921 -0.0414377 0.107614 0.204698 0.261387 0.267739 0.1929 0.0268685 -0.188982 -0.397529 -0.569146 -0.675407 -0.733839 -0.757098 -0.763493 -0.749302 -0.710885 -0.647144 -0.541743 -0.419227 -0.267443 -0.117868 0.0181011 0.131997 0.218062 0.278369 0.326932 0.349622 0.371217 0.369756 0.343357 0.30872 0.232321 0.12339 -0.013478 0.00434676 0.06386 0.0462882 0.161266 0.28054 0.364381 0.422263 0.443215 0.453541 0.450084 0.419451 0.383349 0.328618 0.248756 0.13949 -0.00118197 -0.15155 -0.312314 -0.464529 -0.594815 -0.697723 -0.762223 -0.797702 -0.807451 -0.795017 -0.754664 -0.675775 -0.562263 -0.413217 -0.237757 -0.0443638 0.124836 0.231433 0.292463 0.297483 0.212518 0.0329239 -0.197858 -0.42377 -0.601829 -0.720242 -0.78971 -0.827953 -0.84005 -0.836326 -0.798315 -0.729066 -0.625802 -0.491449 -0.333526 -0.169456 -0.00998809 0.132108 0.238508 0.311733 0.358418 0.391305 0.405546 0.413758 0.393166 0.367001 0.301304 0.192113 0.0669276 0.0912796 0.170829 0.108709 0.220328 0.331899 0.411724 0.456888 0.478279 0.486245 0.475991 0.448952 0.410736 0.352091 0.252055 0.122103 -0.0347151 -0.208254 -0.380261 -0.537323 -0.670381 -0.771808 -0.83915 -0.87291 -0.87482 -0.854699 -0.801506 -0.718367 -0.601952 -0.438429 -0.248645 -0.0426064 0.139399 0.266246 0.331601 0.330869 0.236307 0.0446852 -0.19882 -0.440576 -0.633465 -0.765372 -0.848508 -0.898106 -0.918532 -0.912813 -0.872062 -0.805245 -0.692334 -0.555408 -0.39151 -0.213295 -0.0374061 0.118956 0.244755 0.331818 0.380495 0.419894 0.438311 0.442328 0.432424 0.402335 0.34436 0.248791 0.124846 0.15602 0.222055 0.154616 0.261669 0.364199 0.434404 0.474083 0.498357 0.504692 0.495634 0.47083 0.435453 0.35678 0.245322 0.0978919 -0.0730261 -0.259564 -0.434209 -0.594752 -0.728336 -0.826524 -0.896683 -0.930294 -0.936363 -0.908853 -0.85363 -0.764722 -0.639467 -0.466876 -0.265277 -0.0418328 0.160716 0.297334 0.370216 0.372213 0.261778 0.0614507 -0.198341 -0.456419 -0.663153 -0.810329 -0.89576 -0.943567 -0.972752 -0.963235 -0.926346 -0.854421 -0.74294 -0.607361 -0.43795 -0.259962 -0.0670696 0.103161 0.243821 0.350214 0.403438 0.440712 0.459304 0.466083 0.451493 0.420168 0.368217 0.283854 0.167679 0.202496 0.26094 0.189535 0.291214 0.37992 0.447749 0.492501 0.514094 0.522362 0.515894 0.489339 0.444113 0.359703 0.234088 0.0712864 -0.110157 -0.299494 -0.47678 -0.640801 -0.772124 -0.875232 -0.938541 -0.975144 -0.981889 -0.952952 -0.887652 -0.791067 -0.671718 -0.49555 -0.275273 -0.0320504 0.178968 0.328582 0.414446 0.408391 0.297232 0.0820969 -0.18597 -0.456797 -0.680118 -0.835526 -0.93041 -0.978331 -1.0066 -1.00214 -0.964664 -0.89006 -0.783605 -0.65084 -0.483149 -0.290737 -0.096132 0.0834299 0.240445 0.357773 0.420414 0.458192 0.476626 0.478361 0.463698 0.433112 0.384623 0.298539 0.198304 0.244653 0.281518 0.211926 0.301909 0.390421 0.455008 0.498029 0.522652 0.530148 0.526653 0.50459 0.453355 0.355334 0.21645 0.0441103 -0.144903 -0.339745 -0.519248 -0.676466 -0.807675 -0.905351 -0.973246 -1.00714 -1.01456 -0.984285 -0.919311 -0.818609 -0.684821 -0.50658 -0.276144 -0.018219 0.204498 0.363159 0.448903 0.445607 0.333529 0.121662 -0.153529 -0.439469 -0.682154 -0.845166 -0.943646 -1.00464 -1.02983 -1.02721 -0.99123 -0.91697 -0.812186 -0.678405 -0.514345 -0.325317 -0.12448 0.061185 0.230606 0.353642 0.431417 0.471586 0.48622 0.487989 0.468427 0.436868 0.383199 0.306125 0.213796 0.269571 0.293618 0.220771 0.307239 0.387363 0.448833 0.495592 0.522593 0.534289 0.531522 0.511807 0.449035 0.342968 0.20163 0.0164453 -0.179876 -0.381031 -0.556139 -0.70825 -0.833468 -0.9275 -0.985909 -1.02255 -1.0294 -0.997028 -0.931588 -0.831412 -0.688167 -0.506905 -0.26301 0.00440343 0.23658 0.398791 0.489208 0.482322 0.375325 0.167252 -0.111123 -0.402611 -0.660077 -0.829987 -0.941346 -1.00483 -1.03627 -1.03726 -1.00268 -0.933273 -0.82933 -0.699043 -0.540233 -0.360279 -0.150184 0.0384365 0.212623 0.355261 0.437321 0.480252 0.493994 0.490052 0.468882 0.431762 0.379248 0.298355 0.219304 0.28682 0.298025 0.219209 0.294167 0.376522 0.439957 0.489737 0.51721 0.533046 0.536786 0.51209 0.443842 0.334763 0.175089 -0.0126462 -0.21071 -0.406213 -0.574177 -0.727265 -0.853188 -0.936103 -1.00084 -1.03193 -1.03673 -0.99688 -0.926727 -0.822028 -0.688453 -0.493552 -0.242215 0.0285674 0.26779 0.433431 0.522181 0.517505 0.410646 0.202913 -0.0770229 -0.366413 -0.630551 -0.812267 -0.92769 -0.988406 -1.0276 -1.0347 -1.00273 -0.940762 -0.840938 -0.711414 -0.560122 -0.381213 -0.175104 0.0170853 0.19571 0.34755 0.442838 0.483406 0.494676 0.487375 0.465932 0.42409 0.373102 0.287616 0.211828 0.286322 0.292454 0.208744 0.276789 0.358575 0.424785 0.474926 0.508146 0.528813 0.531391 0.506642 0.43534 0.31827 0.151738 -0.0379112 -0.237923 -0.43432 -0.601487 -0.740453 -0.857625 -0.946508 -1.00766 -1.03233 -1.032 -0.986805 -0.908709 -0.802206 -0.659934 -0.458469 -0.20738 0.0663281 0.302933 0.468213 0.555574 0.548584 0.443685 0.239073 -0.0336359 -0.323164 -0.581871 -0.769394 -0.891704 -0.973153 -1.01381 -1.02588 -0.998649 -0.936928 -0.84396 -0.725874 -0.576139 -0.404528 -0.198617 0.000189585 0.183682 0.339054 0.439284 0.482441 0.494908 0.483078 0.455876 0.408613 0.348044 0.2735 0.195009 0.284288 0.278797 0.188767 0.259468 0.337157 0.39826 0.456014 0.49116 0.521204 0.525181 0.49989 0.425189 0.298987 0.130344 -0.0635353 -0.261513 -0.455543 -0.624616 -0.759129 -0.864926 -0.952193 -1.00672 -1.02943 -1.01352 -0.96686 -0.882943 -0.764341 -0.622119 -0.411179 -0.160844 0.107362 0.342103 0.504092 0.587585 0.583295 0.475937 0.284493 0.0176042 -0.262032 -0.517783 -0.712552 -0.838295 -0.934567 -0.992111 -1.01438 -0.996508 -0.934912 -0.848974 -0.730702 -0.591067 -0.422694 -0.223164 -0.0196313 0.167951 0.321013 0.429185 0.480252 0.489561 0.47271 0.438102 0.387346 0.325926 0.252927 0.169129 0.266142 0.252565 0.157396 0.224453 0.302492 0.370513 0.425968 0.473026 0.505335 0.515756 0.490722 0.408015 0.274792 0.10683 -0.09083 -0.290189 -0.467707 -0.631755 -0.765852 -0.870934 -0.9483 -0.992239 -1.0128 -0.993036 -0.93071 -0.845657 -0.726794 -0.571023 -0.361856 -0.11137 0.158033 0.383847 0.54123 0.621524 0.613473 0.517503 0.331824 0.0766915 -0.196942 -0.439239 -0.635998 -0.77568 -0.884083 -0.956548 -0.988198 -0.982417 -0.933833 -0.85368 -0.740667 -0.602354 -0.439642 -0.240969 -0.0422494 0.147547 0.310303 0.419835 0.467559 0.478312 0.457542 0.41312 0.360967 0.299674 0.216573 0.136293 0.237123 0.217994 0.115547 0.180394 0.264658 0.336547 0.394774 0.446975 0.486429 0.502116 0.474614 0.38238 0.252781 0.0767207 -0.1142 -0.309651 -0.487363 -0.639922 -0.768511 -0.866769 -0.942676 -0.98158 -0.989452 -0.960927 -0.894194 -0.797449 -0.670444 -0.51443 -0.301487 -0.0513461 0.212595 0.429083 0.578435 0.655395 0.647944 0.554571 0.377369 0.136003 -0.123549 -0.354507 -0.55364 -0.709892 -0.824965 -0.908547 -0.960371 -0.956998 -0.922959 -0.846704 -0.739141 -0.607133 -0.44615 -0.259771 -0.0605821 0.12737 0.291602 0.407193 0.45459 0.462479 0.435197 0.383798 0.327416 0.26377 0.174178 0.0978053 0.203852 0.172827 0.065441 0.13488 0.221826 0.296635 0.366889 0.421659 0.465963 0.483479 0.454306 0.364081 0.229428 0.0568234 -0.135459 -0.322439 -0.501774 -0.64665 -0.766604 -0.85707 -0.927361 -0.959215 -0.958755 -0.920945 -0.843533 -0.74395 -0.613824 -0.451043 -0.231811 0.0159118 0.26771 0.473603 0.614691 0.689062 0.681801 0.593363 0.425594 0.198901 -0.0434737 -0.275043 -0.467706 -0.633286 -0.762193 -0.854886 -0.914752 -0.931419 -0.902191 -0.832127 -0.730353 -0.60763 -0.457287 -0.274421 -0.0792601 0.103367 0.269561 0.392455 0.444194 0.446824 0.413573 0.353435 0.287916 0.214916 0.127221 0.0518143 0.161398 0.119491 0.0136049 0.0822205 0.170727 0.252386 0.328171 0.390434 0.443112 0.462472 0.431119 0.345359 0.210825 0.0406772 -0.154341 -0.339761 -0.51263 -0.652911 -0.77229 -0.852337 -0.910805 -0.931913 -0.927361 -0.883294 -0.792633 -0.68641 -0.55614 -0.379321 -0.165671 0.0760326 0.315153 0.513921 0.643985 0.718463 0.714144 0.630544 0.475556 0.268432 0.0385893 -0.182554 -0.382162 -0.549137 -0.690967 -0.805244 -0.873575 -0.899185 -0.87878 -0.815278 -0.720916 -0.602908 -0.463504 -0.287588 -0.0993175 0.0869895 0.252337 0.374934 0.431389 0.426598 0.382469 0.317066 0.238657 0.161165 0.0681127 -0.00387778 0.10808 0.0631861 -0.0510145 0.0207262 0.113953 0.205346 0.285974 0.362629 0.419643 0.439824 0.415371 0.325325 0.192903 0.0171286 -0.173326 -0.356211 -0.524133 -0.658363 -0.763493 -0.845508 -0.897805 -0.912296 -0.891427 -0.836465 -0.740961 -0.631911 -0.496407 -0.319698 -0.100237 0.135115 0.37127 0.557024 0.68176 0.74922 0.749079 0.67509 0.535399 0.337638 0.123855 -0.0944857 -0.300765 -0.478873 -0.630647 -0.745933 -0.82427 -0.863361 -0.851985 -0.799509 -0.715188 -0.601329 -0.461255 -0.293862 -0.111269 0.0695838 0.235055 0.359395 0.41139 0.409169 0.357409 0.278827 0.193788 0.10498 0.0110273 -0.0646795 0.0520647 0.000101524 -0.11256 -0.0406137 0.0624349 0.157949 0.24859 0.332482 0.396346 0.418857 0.397516 0.301784 0.16784 -0.00602531 -0.192935 -0.367903 -0.526563 -0.657446 -0.75414 -0.827967 -0.871789 -0.884793 -0.859395 -0.788212 -0.687785 -0.573794 -0.430382 -0.257111 -0.0356774 0.193634 0.422335 0.600096 0.718508 0.786487 0.788787 0.720046 0.585403 0.406473 0.200301 -0.00573108 -0.209615 -0.38874 -0.5493 -0.680084 -0.771008 -0.8202 -0.824556 -0.782022 -0.707666 -0.601569 -0.464094 -0.302718 -0.12808 0.057928 0.217866 0.338428 0.396443 0.385892 0.332954 0.247519 0.148993 0.0450639 -0.0532898 -0.130973 -0.00787513 -0.0646932 -0.175541 -0.0990727 0.00599718 0.112599 0.214636 0.306901 0.368582 0.394019 0.375463 0.28192 0.142952 -0.0247033 -0.203616 -0.371224 -0.51947 -0.642758 -0.742734 -0.809669 -0.852398 -0.850909 -0.814551 -0.743509 -0.641265 -0.531297 -0.388808 -0.198973 0.0145055 0.248757 0.47106 0.638581 0.756231 0.81881 0.823389 0.762359 0.638383 0.469478 0.280849 0.0764336 -0.113949 -0.290767 -0.468764 -0.611219 -0.710453 -0.768169 -0.787804 -0.75728 -0.689864 -0.593897 -0.469911 -0.307339 -0.137112 0.0446091 0.201681 0.322021 0.381586 0.37195 0.309041 0.214058 0.108969 -0.00348902 -0.117746 -0.197937 -0.0722912 -0.131111 -0.238226 -0.156639 -0.0429887 0.0696564 0.180426 0.276688 0.346866 0.380344 0.35125 0.258005 0.122841 -0.0423047 -0.214251 -0.373564 -0.515787 -0.632472 -0.72582 -0.786117 -0.811453 -0.809512 -0.770126 -0.697578 -0.597489 -0.487066 -0.336497 -0.148217 0.0716531 0.30945 0.519386 0.680411 0.791663 0.853014 0.858744 0.80569 0.693298 0.535424 0.35815 0.166442 -0.0234666 -0.201248 -0.374924 -0.527024 -0.640099 -0.710826 -0.733841 -0.723832 -0.670117 -0.578508 -0.460613 -0.310527 -0.15031 0.0263858 0.182532 0.303232 0.362212 0.351843 0.282547 0.183125 0.0710509 -0.0531724 -0.180153 -0.260525 -0.135386 -0.196697 -0.296827 -0.208094 -0.0879892 0.0350064 0.1508 0.249755 0.32829 0.355143 0.325428 0.237607 0.103895 -0.0602168 -0.226808 -0.379311 -0.517632 -0.621267 -0.700741 -0.753914 -0.782745 -0.77217 -0.727973 -0.653577 -0.554742 -0.436684 -0.287755 -0.0962151 0.125294 0.356949 0.564284 0.715914 0.822401 0.883346 0.894196 0.844665 0.743784 0.595504 0.428903 0.244552 0.0664862 -0.106004 -0.283493 -0.439672 -0.562359 -0.646567 -0.687794 -0.681156 -0.646351 -0.563952 -0.458844 -0.315072 -0.157603 0.00740837 0.165736 0.282804 0.339829 0.332806 0.259899 0.155582 0.0391101 -0.0963826 -0.2302 -0.321764 -0.200082 -0.2602 -0.352531 -0.262792 -0.136148 0.000443467 0.119623 0.228082 0.304558 0.335033 0.302726 0.215319 0.0853758 -0.074976 -0.228832 -0.378561 -0.507643 -0.601586 -0.676371 -0.720879 -0.745891 -0.723701 -0.684081 -0.612504 -0.512425 -0.397911 -0.245009 -0.0472463 0.1761 0.402056 0.605144 0.754181 0.856752 0.913074 0.925836 0.882696 0.78638 0.6529 0.497395 0.329873 0.163503 -0.0116969 -0.181946 -0.340855 -0.476967 -0.573742 -0.631714 -0.639623 -0.609445 -0.545599 -0.445904 -0.315179 -0.170331 -0.00824803 0.141015 0.263386 0.321214 0.309063 0.24231 0.133559 0.00519961 -0.141372 -0.278386 -0.385521 -0.265346 -0.324622 -0.409184 -0.313796 -0.17238 -0.0349067 0.0908793 0.204862 0.282714 0.316814 0.277694 0.195851 0.0630605 -0.0842502 -0.236699 -0.37513 -0.495687 -0.581185 -0.646756 -0.691008 -0.703476 -0.683012 -0.641481 -0.569139 -0.480693 -0.360978 -0.203775 -0.00285203 0.222622 0.449941 0.645535 0.789856 0.886805 0.942629 0.95364 0.915397 0.82712 0.704388 0.561871 0.411504 0.256254 0.092772 -0.0715139 -0.234682 -0.37898 -0.492723 -0.566799 -0.595236 -0.581916 -0.524533 -0.439453 -0.317267 -0.172655 -0.021245 0.126431 0.247774 0.304277 0.290166 0.230227 0.108854 -0.02898 -0.17158 -0.321271 -0.439037 -0.326708 -0.389917 -0.462344 -0.355089 -0.212307 -0.0670727 0.0703128 0.182139 0.258354 0.290612 0.254786 0.171202 0.0419049 -0.100368 -0.244107 -0.365548 -0.467315 -0.545985 -0.601959 -0.641131 -0.652076 -0.634699 -0.594899 -0.527292 -0.437285 -0.320138 -0.155086 0.0464703 0.269835 0.494745 0.683925 0.823062 0.916461 0.969229 0.982886 0.946969 0.864135 0.747913 0.617885 0.480727 0.337092 0.191322 0.0297459 -0.12785 -0.284194 -0.405984 -0.494498 -0.536756 -0.535925 -0.500884 -0.421556 -0.311509 -0.175271 -0.0338131 0.105822 0.222086 0.285049 0.272742 0.213907 0.0872985 -0.0545433 -0.203218 -0.364241 -0.488549 -0.381037 -0.453134 -0.514837 -0.3964 -0.249198 -0.0916083 0.0464198 0.161897 0.235376 0.264708 0.232037 0.14435 0.0238653 -0.108871 -0.236104 -0.338056 -0.430461 -0.505756 -0.559371 -0.590126 -0.602177 -0.57738 -0.539734 -0.48016 -0.38578 -0.268991 -0.106885 0.0958734 0.314857 0.536343 0.724757 0.856743 0.945737 0.998168 1.0111 0.977527 0.899312 0.790563 0.669813 0.545712 0.413441 0.279752 0.13236 -0.0245009 -0.184644 -0.317243 -0.415519 -0.472346 -0.48894 -0.460984 -0.402538 -0.300409 -0.182233 -0.0414203 0.0904123 0.202994 0.262836 0.255716 0.195176 0.0662429 -0.0760299 -0.23226 -0.400016 -0.533359 -0.438777 -0.510006 -0.563271 -0.435031 -0.278789 -0.12046 0.0235149 0.136653 0.214186 0.232793 0.203795 0.121655 0.00923328 -0.109512 -0.219247 -0.31664 -0.401607 -0.462579 -0.501627 -0.525663 -0.525798 -0.510191 -0.472731 -0.408523 -0.330495 -0.217227 -0.0515865 0.146995 0.367086 0.584466 0.763155 0.88976 0.977195 1.02424 1.03955 1.00775 0.932166 0.825623 0.712961 0.598953 0.483708 0.357329 0.223 0.0701861 -0.0849369 -0.227687 -0.338193 -0.405954 -0.435456 -0.424388 -0.377865 -0.29286 -0.186696 -0.0597663 0.0669705 0.178007 0.232906 0.238092 0.174593 0.049808 -0.101584 -0.259985 -0.434599 -0.57773 -0.493654 -0.56751 -0.611928 -0.472499 -0.309115 -0.149919 -0.00436273 0.112429 0.187223 0.201441 0.179516 0.103271 0.00103886 -0.102231 -0.204025 -0.290344 -0.356643 -0.401572 -0.436356 -0.450724 -0.451086 -0.434083 -0.39307 -0.338529 -0.261154 -0.151134 0.00937717 0.202551 0.416844 0.627381 0.798223 0.920788 1.00292 1.04901 1.06195 1.03012 0.959107 0.856023 0.751805 0.645877 0.543339 0.425333 0.300466 0.156848 0.00994349 -0.138003 -0.258193 -0.338265 -0.380592 -0.375949 -0.343602 -0.284429 -0.187752 -0.0691407 0.0439144 0.149197 0.208464 0.212451 0.145757 0.0295988 -0.123997 -0.289237 -0.47122 -0.623488 -0.548875 -0.624453 -0.655742 -0.514057 -0.340248 -0.176954 -0.0314218 0.0855915 0.153392 0.171166 0.154526 0.0849631 -0.0063642 -0.0913949 -0.177233 -0.248651 -0.301291 -0.340812 -0.362203 -0.377291 -0.373667 -0.353693 -0.312376 -0.261594 -0.178891 -0.0759062 0.0732238 0.263137 0.469867 0.667977 0.830203 0.950314 1.02687 1.07058 1.08218 1.05255 0.982234 0.885632 0.785561 0.688803 0.594799 0.489808 0.370982 0.233432 0.0928061 -0.0515419 -0.176711 -0.263899 -0.31613 -0.331554 -0.308731 -0.262263 -0.185372 -0.083477 0.0251907 0.114778 0.177115 0.176958 0.117786 -0.00117476 -0.153841 -0.32 -0.508719 -0.662294 -0.594431 -0.677969 -0.70205 -0.555347 -0.372845 -0.206846 -0.058382 0.053878 0.121122 0.14178 0.131422 0.0666921 -0.00507114 -0.0806739 -0.147947 -0.202351 -0.24146 -0.266147 -0.282503 -0.285212 -0.280025 -0.257727 -0.217517 -0.16866 -0.0936454 0.00798525 0.155038 0.329116 0.523422 0.714797 0.86972 0.979775 1.05264 1.09224 1.10291 1.07353 1.00194 0.906319 0.809716 0.722187 0.637169 0.5455 0.43431 0.304135 0.169758 0.0308104 -0.0988117 -0.193172 -0.252085 -0.280494 -0.273684 -0.236899 -0.175658 -0.0910432 0.00354299 0.0876052 0.142957 0.142198 0.0816435 -0.0312414 -0.187902 -0.357186 -0.549135 -0.703871 -0.640343 -0.728766 -0.744586 -0.596887 -0.41186 -0.24085 -0.0935236 0.0145299 0.0863279 0.11776 0.105177 0.0541878 -0.000749672 -0.0554126 -0.103227 -0.135963 -0.161097 -0.176837 -0.181259 -0.182437 -0.173028 -0.145652 -0.107702 -0.0622199 0.00883345 0.107898 0.244586 0.404284 0.591318 0.763427 0.904937 1.00812 1.0753 1.11295 1.1248 1.09185 1.02182 0.928055 0.833672 0.750016 0.665416 0.585227 0.492346 0.373956 0.24268 0.111839 -0.0156518 -0.11554 -0.191591 -0.225803 -0.235828 -0.205142 -0.16113 -0.0929748 -0.0105873 0.0582729 0.108004 0.109626 0.0417797 -0.070044 -0.22315 -0.397557 -0.589575 -0.742125 -0.686424 -0.783009 -0.784607 -0.642078 -0.447298 -0.274395 -0.130466 -0.0201227 0.057074 0.0920187 0.0843521 0.0456978 0.0123528 -0.0175092 -0.04696 -0.0635742 -0.0696047 -0.0738484 -0.0727527 -0.061742 -0.0399293 -0.0186638 0.0162225 0.0653029 0.132554 0.221137 0.343422 0.491795 0.662815 0.82018 0.94742 1.04016 1.10148 1.13605 1.14475 1.11047 1.04198 0.951561 0.860003 0.775684 0.700928 0.621499 0.534878 0.427844 0.307486 0.187672 0.0707011 -0.0342639 -0.107826 -0.152451 -0.177346 -0.169485 -0.141438 -0.0965128 -0.0210429 0.0336547 0.0790369 0.0661163 0.00281734 -0.106809 -0.260452 -0.433663 -0.632518 -0.785867 -0.730157 -0.832349 -0.826629 -0.680382 -0.492528 -0.318151 -0.167189 -0.0610484 0.0271024 0.0627633 0.0694568 0.053624 0.0391055 0.0264306 0.0190834 0.0232161 0.0293725 0.0388021 0.0502438 0.0710446 0.0918895 0.124991 0.151013 0.197816 0.261979 0.342395 0.45448 0.586416 0.7357 0.876508 0.99228 1.07268 1.12852 1.16057 1.1674 1.13254 1.06388 0.976475 0.883512 0.80328 0.732468 0.659219 0.579717 0.485239 0.377408 0.261995 0.151403 0.0514624 -0.0324675 -0.0811832 -0.106841 -0.12032 -0.107393 -0.074179 -0.0291219 0.0155871 0.0393994 0.0240519 -0.0415683 -0.146229 -0.302101 -0.481392 -0.672498 -0.830318 -0.776447 -0.879118 -0.869772 -0.720845 -0.536214 -0.366624 -0.211502 -0.0930895 -0.00546822 0.0358279 0.0671317 0.0717906 0.0757377 0.082691 0.0973589 0.115188 0.130087 0.149835 0.178641 0.208436 0.232687 0.263685 0.299518 0.338202 0.388432 0.460249 0.56118 0.675785 0.81028 0.933717 1.03634 1.10655 1.15609 1.18475 1.19076 1.15703 1.08952 1.00354 0.916554 0.83857 0.768296 0.7008 0.6301 0.545224 0.449328 0.33786 0.235329 0.14644 0.0570173 0.00414908 -0.0413825 -0.0633856 -0.0603608 -0.0515933 -0.0261486 -0.00209544 0.0123926 -0.011061 -0.0823506 -0.191554 -0.350749 -0.52829 -0.717754 -0.87384 -0.819445 -0.923977 -0.915183 -0.763387 -0.58089 -0.41394 -0.255416 -0.130398 -0.0361788 0.0281496 0.0702503 0.0900212 0.127388 0.149803 0.175703 0.208034 0.243426 0.280428 0.312412 0.346562 0.377492 0.410322 0.439132 0.474607 0.516584 0.577232 0.66631 0.766426 0.880972 0.985627 1.0782 1.14003 1.18326 1.20956 1.21546 1.18005 1.11601 1.03323 0.952013 0.880963 0.814758 0.749104 0.680432 0.602423 0.515574 0.418525 0.322302 0.234489 0.153456 0.0907384 0.0445193 0.0135568 -0.00732053 -0.0130927 -0.00893431 -0.000308012 -0.0132368 -0.0487322 -0.124908 -0.238502 -0.40053 -0.57813 -0.764668 -0.915912 -0.860783 -0.968615 -0.960811 -0.806682 -0.628408 -0.456731 -0.294408 -0.163806 -0.052614 0.0260752 0.0798364 0.127612 0.182326 0.223273 0.267225 0.318454 0.365812 0.412937 0.448828 0.481918 0.51384 0.544692 0.571425 0.606497 0.647128 0.695189 0.771228 0.854861 0.951243 1.0448 1.12207 1.17709 1.21628 1.23595 1.23999 1.20794 1.14355 1.06517 0.987853 0.92307 0.861798 0.798173 0.73745 0.664118 0.586653 0.498644 0.410111 0.326912 0.248275 0.181913 0.131267 0.0873069 0.0565462 0.0324945 0.021645 0.00657168 -0.0225222 -0.0727012 -0.163112 -0.285772 -0.448265 -0.625251 -0.810553 -0.965496 -0.901233 -1.01573 -1.00267 -0.853221 -0.674618 -0.499513 -0.337491 -0.19429 -0.0708118 0.025774 0.0948747 0.168669 0.236782 0.29772 0.359686 0.424447 0.475553 0.526975 0.565317 0.599004 0.634132 0.66642 0.694156 0.72906 0.761127 0.806262 0.863484 0.931653 1.01417 1.09376 1.1634 1.2111 1.24413 1.26216 1.26391 1.23166 1.16976 1.09585 1.02537 0.962154 0.90745 0.851247 0.797075 0.735059 0.666352 0.589489 0.506188 0.430307 0.353349 0.281966 0.223784 0.174625 0.122791 0.0833139 0.0512502 0.0189872 -0.0252082 -0.0955863 -0.19544 -0.326635 -0.49449 -0.676543 -0.858502 -1.00905 -0.944276 -1.06041 -1.04621 -0.896384 -0.718759 -0.547827 -0.373914 -0.218049 -0.0807438 0.0312245 0.12325 0.206854 0.290488 0.376636 0.452326 0.517757 0.579157 0.628258 0.67406 0.714974 0.751432 0.781067 0.810002 0.83819 0.865068 0.899751 0.94768 1.00743 1.07489 1.14688 1.20631 1.24673 1.27382 1.2878 1.28823 1.25591 1.19925 1.12823 1.0629 1.00712 0.953505 0.903984 0.855799 0.799809 0.739625 0.671189 0.594746 0.516684 0.443013 0.37635 0.310402 0.25557 0.195857 0.141991 0.0920847 0.0371136 -0.0265642 -0.108487 -0.223674 -0.368365 -0.543857 -0.721053 -0.904202 -1.05258 -0.986185 -1.09954 -1.08788 -0.940516 -0.764995 -0.58739 -0.412344 -0.240004 -0.0865414 0.0443823 0.146233 0.247199 0.3527 0.446309 0.527803 0.604742 0.668227 0.722166 0.77128 0.812252 0.847095 0.879698 0.906042 0.931864 0.953771 0.983408 1.0268 1.07474 1.13498 1.19626 1.24811 1.2827 1.30217 1.313 1.31305 1.28236 1.22815 1.167 1.10714 1.0544 1.0048 0.954831 0.911104 0.861421 0.805267 0.747358 0.677062 0.604136 0.531885 0.462624 0.395192 0.337369 0.26912 0.203012 0.129162 0.0570085 -0.0272912 -0.119462 -0.24826 -0.400166 -0.588064 -0.768332 -0.952447 -1.09575 -1.024 -1.13914 -1.12957 -0.988192 -0.807004 -0.628269 -0.441681 -0.261774 -0.0936732 0.0514782 0.172081 0.293615 0.408046 0.508242 0.597181 0.67981 0.744666 0.801743 0.849296 0.893137 0.930879 0.964458 0.990473 1.01627 1.03898 1.06475 1.09928 1.1371 1.19 1.24165 1.28577 1.31386 1.33091 1.33758 1.33641 1.30744 1.25919 1.20406 1.15275 1.10462 1.05817 1.01086 0.969249 0.921081 0.871114 0.811666 0.754642 0.684306 0.612172 0.544891 0.477226 0.413025 0.337488 0.263431 0.175893 0.0853054 -0.0208679 -0.132207 -0.272009 -0.438878 -0.629065 -0.809348 -0.996238 -1.13792 -1.07215 -1.18063 -1.16934 -1.02787 -0.844881 -0.659775 -0.469943 -0.27826 -0.0984263 0.0631233 0.198359 0.331309 0.455523 0.559672 0.656418 0.743842 0.813366 0.873013 0.921929 0.967659 1.00621 1.03852 1.06559 1.08871 1.10989 1.13356 1.16221 1.19349 1.23705 1.28172 1.31972 1.34319 1.35662 1.3609 1.36054 1.33301 1.29107 1.24063 1.19337 1.14916 1.10801 1.0644 1.02247 0.976216 0.926252 0.874531 0.819435 0.753574 0.685047 0.618398 0.552575 0.478244 0.39328 0.311081 0.221174 0.115616 -0.00804627 -0.137006 -0.296286 -0.474442 -0.669738 -0.851107 -1.04249 -1.18043 -1.09965 -1.21979 -1.20603 -1.06533 -0.882762 -0.694852 -0.501608 -0.297194 -0.103959 0.0694839 0.217352 0.357369 0.488771 0.609787 0.712885 0.8043 0.873601 0.934038 0.987214 1.03207 1.06925 1.10331 1.12844 1.15101 1.17063 1.18995 1.2125 1.24035 1.27609 1.31449 1.35011 1.36932 1.37911 1.38289 1.37676 1.35548 1.31636 1.2703 1.22899 1.18887 1.15243 1.11431 1.07339 1.02936 0.982707 0.933532 0.877307 0.819718 0.753536 0.686643 0.617538 0.540673 0.448246 0.352515 0.250603 0.137534 0.00186847 -0.143168 -0.316552 -0.508529 -0.708868 -0.893979 -1.08781 -1.21866 -1.13626 -1.25624 -1.24009 -1.09771 -0.915435 -0.727719 -0.526525 -0.310927 -0.107396 0.0737545 0.232346 0.385635 0.525898 0.652079 0.757373 0.848458 0.918854 0.983175 1.03756 1.08216 1.122 1.15537 1.18215 1.20463 1.22158 1.23748 1.25663 1.28137 1.31342 1.34706 1.37705 1.39162 1.40028 1.39997 1.39433 1.37442 1.33817 1.29756 1.25975 1.22311 1.18939 1.1559 1.12096 1.07939 1.03469 0.987417 0.931306 0.872006 0.812756 0.743021 0.673921 0.594401 0.500441 0.396988 0.278972 0.15607 0.012885 -0.146396 -0.335748 -0.536776 -0.740463 -0.93645 -1.12553 -1.24953 -1.16629 -1.28455 -1.27111 -1.13129 -0.946797 -0.753992 -0.547401 -0.328008 -0.119526 0.0790915 0.243734 0.405395 0.555914 0.687159 0.793999 0.88592 0.962007 1.02992 1.08049 1.12855 1.1683 1.19955 1.22481 1.24676 1.26303 1.27878 1.29539 1.31599 1.34356 1.37329 1.40007 1.41257 1.41836 1.41801 1.41212 1.39362 1.36029 1.32507 1.28987 1.25742 1.22524 1.19359 1.16138 1.12131 1.07831 1.03571 0.97967 0.923528 0.863679 0.797104 0.720294 0.640965 0.543089 0.436913 0.308448 0.17422 0.0192774 -0.153084 -0.355741 -0.56117 -0.773538 -0.970022 -1.15698 -1.27684 -1.1925 -1.3139 -1.29898 -1.15872 -0.97572 -0.778278 -0.565486 -0.342516 -0.122852 0.0776088 0.255027 0.425904 0.583087 0.709868 0.823106 0.919413 0.997624 1.06493 1.12029 1.16648 1.2062 1.23962 1.26441 1.28623 1.3015 1.31508 1.33051 1.34952 1.37434 1.3991 1.424 1.43317 1.43669 1.43476 1.43118 1.41503 1.38669 1.35135 1.32101 1.29167 1.26118 1.23335 1.20185 1.16194 1.12308 1.07896 1.02986 0.96723 0.90438 0.843421 0.769644 0.680068 0.579177 0.466469 0.335468 0.187609 0.0268864 -0.155682 -0.369265 -0.583566 -0.798095 -0.998495 -1.1853 -1.3029 -1.21086 -1.33323 -1.31733 -1.18197 -1.00266 -0.799687 -0.583104 -0.351794 -0.129789 0.0765232 0.267693 0.444243 0.5989 0.73089 0.848302 0.94513 1.02198 1.0926 1.14845 1.19365 1.23455 1.26853 1.29422 1.31514 1.33077 1.34413 1.35969 1.37828 1.39944 1.42047 1.44316 1.4495 1.45376 1.45139 1.44808 1.43229 1.40541 1.37263 1.34487 1.32105 1.29517 1.2664 1.23642 1.20329 1.16305 1.11735 1.06736 1.00946 0.942628 0.876247 0.803959 0.718188 0.612875 0.494872 0.360227 0.201128 0.031645 -0.160052 -0.381127 -0.604775 -0.826565 -1.02808 -1.21238 -1.32571 -1.23298 -1.35227 -1.33575 -1.19547 -1.02237 -0.809898 -0.593789 -0.358883 -0.128954 0.0844287 0.278186 0.46079 0.613456 0.750579 0.869018 0.964123 1.04506 1.11446 1.17201 1.21985 1.26008 1.29346 1.31905 1.34073 1.35633 1.36906 1.38257 1.40075 1.4199 1.44021 1.46039 1.46685 1.47072 1.46966 1.46626 1.44994 1.42367 1.39506 1.37052 1.34617 1.32263 1.29455 1.26833 1.23454 1.19607 1.15305 1.10029 1.04449 0.980742 0.911499 0.830172 0.74567 0.636813 0.52338 0.376316 0.213602 0.0326234 -0.162819 -0.384121 -0.618662 -0.842072 -1.04672 -1.226 -1.34076 -1.24075 -1.36173 -1.34808 -1.20657 -1.03175 -0.821938 -0.597264 -0.365382 -0.130251 0.0872704 0.285982 0.467602 0.623327 0.761405 0.87837 0.976243 1.05929 1.13107 1.18938 1.23727 1.27778 1.31069 1.33406 1.35665 1.37197 1.38302 1.39913 1.41557 1.43198 1.45167 1.47112 1.47681 1.48142 1.47738 1.47546 1.46122 1.43557 1.40925 1.38666 1.36421 1.33982 1.31613 1.29064 1.25547 1.21828 1.17236 1.12253 1.06588 1.00336 0.933403 0.851474 0.76206 0.659833 0.540883 0.392754 0.222835 0.0377943 -0.162249 -0.383436 -0.623531 -0.853925 -1.05957 -1.23623 -1.34414 -1.2434 -1.37175 -1.35539 -1.2109 -1.03461 -0.824905 -0.603722 -0.362472 -0.132839 0.0923171 0.292617 0.476637 0.636732 0.77342 0.893051 0.991157 1.07587 1.14714 1.20719 1.25443 1.29642 1.32768 1.352 1.37535 1.3916 1.40346 1.41698 1.43218 1.44622 1.46713 1.4828 1.48889 1.49317 1.49049 1.48557 1.47291 1.44862 1.4242 1.40389 1.38479 1.36234 1.33898 1.31373 1.28067 1.2407 1.19817 1.14381 1.08487 1.0207 0.95133 0.869869 0.778764 0.675406 0.55173 0.407063 0.230636 0.0389323 -0.168099 -0.391454 -0.634607 -0.860229 -1.06954 -1.24584 -1.35097 -1.24167 -1.37003 -1.35564 -1.20857 -1.02846 -0.816966 -0.596491 -0.353273 -0.128693 0.100146 0.302493 0.487548 0.64572 0.782836 0.906904 1.00817 1.09063 1.16293 1.22069 1.27148 1.31388 1.34589 1.36907 1.38976 1.40334 1.42007 1.43264 1.44901 1.46261 1.48254 1.49747 1.50349 1.50834 1.5059 1.5019 1.48858 1.46621 1.44389 1.42669 1.4042 1.38417 1.3627 1.33647 1.3045 1.26669 1.22401 1.17062 1.11195 1.0497 0.973622 0.890936 0.798519 0.693732 0.56763 0.423147 0.243603 0.0459628 -0.163249 -0.391441 -0.633989 -0.862938 -1.07161 -1.24464 -1.3491 -1.23455 -1.35597 -1.34403 -1.2001 -1.01562 -0.809573 -0.587034 -0.348627 -0.116613 0.111093 0.308349 0.492339 0.649961 0.789234 0.910649 1.01161 1.09609 1.16529 1.22466 1.27524 1.31872 1.34795 1.37334 1.39318 1.40717 1.42229 1.4354 1.45157 1.46632 1.48259 1.49905 1.50502 1.50759 1.50528 1.50113 1.49047 1.46943 1.44834 1.42937 1.41161 1.38991 1.36905 1.34522 1.31227 1.27632 1.23152 1.18084 1.12382 1.06079 0.98841 0.902452 0.808516 0.704041 0.574219 0.427846 0.25123 0.0517375 -0.161716 -0.38638 -0.628972 -0.859398 -1.06623 -1.23889 -1.33934 -1.21915 -1.3163 -1.29823 -1.14722 -0.957457 -0.755724 -0.54082 -0.304097 -0.0760884 0.137051 0.332512 0.508087 0.660544 0.79272 0.909859 1.00151 1.08084 1.14535 1.20086 1.25087 1.29044 1.31793 1.34158 1.36135 1.37601 1.38914 1.40102 1.41508 1.42951 1.44615 1.46124 1.46586 1.46769 1.46565 1.46018 1.45112 1.43317 1.41155 1.39526 1.37898 1.36029 1.33983 1.31671 1.28652 1.25377 1.20966 1.16114 1.10653 1.04413 0.975367 0.893394 0.802944 0.693866 0.570833 0.428573 0.253602 0.0565653 -0.151506 -0.371632 -0.606553 -0.835832 -1.03573 -1.2122 -1.30853 -1.18556 -1.18838 -1.16548 -1.0147 -0.823099 -0.625531 -0.414289 -0.179253 0.0393985 0.239546 0.423568 0.587541 0.720737 0.838613 0.941897 1.02071 1.08338 1.14155 1.18857 1.22981 1.25934 1.28521 1.30468 1.32094 1.33447 1.34491 1.35486 1.36598 1.38117 1.39464 1.40552 1.40834 1.40789 1.40565 1.39999 1.39012 1.37526 1.36009 1.34499 1.33234 1.31972 1.30211 1.28247 1.25713 1.22616 1.19277 1.14794 1.10065 1.04638 0.986103 0.914243 0.833303 0.732181 0.616334 0.484034 0.314097 0.127608 -0.0838177 -0.298847 -0.529108 -0.757534 -0.956144 -1.13157 -1.22435 -1.10446
-0.837761 -0.875787 -0.927942 -0.966054 -0.962648 -0.948323 -0.934595 -0.92947 -0.930569 -0.908 -0.899579 -0.907249 -0.905837 -0.898373 -0.911035 -0.901647 -0.920266 -0.949828 -0.939217 -0.890332 -0.836183 -0.770577 -0.69478 -0.630127 -0.554593 -0.49096 -0.44023 -0.401443 -0.358306 -0.329857 -0.309702 -0.301613 -0.301578 -0.306288 -0.321116 -0.336587 -0.379814 -0.418552 -0.471005 -0.524676 -0.587253 -0.652851 -0.727578 -0.802559 -0.871796 -0.918385 -0.963868 -0.990102 -1.0156 -1.03334 -1.05026 -1.06704 -1.07548 -1.08163 -1.08144 -1.08263 -1.10087 -1.11004 -1.10621 -1.11946 -1.12106 -1.08097 -1.03686 -0.956967 -0.815882 -0.710788 -0.895885 -1.02566 -1.04005 -1.02003 -0.98585 -0.957667 -0.951259 -0.907703 -0.874022 -0.872776 -0.857388 -0.83375 -0.838467 -0.820877 -0.795717 -0.788888 -0.750949 -0.666142 -0.582864 -0.481463 -0.375011 -0.266124 -0.155307 -0.044342 0.0534591 0.126602 0.20617 0.246926 0.278903 0.303451 0.297126 0.287336 0.268028 0.253606 0.186575 0.107272 0.00541726 -0.0933181 -0.202306 -0.298993 -0.405024 -0.536091 -0.642749 -0.726884 -0.787727 -0.815673 -0.858822 -0.880732 -0.901314 -0.924288 -0.946418 -0.963912 -0.98995 -1.00038 -1.02809 -1.06018 -1.0997 -1.15462 -1.16005 -1.13599 -1.03884 -0.943942 -0.739059 -0.688918 -0.913348 -1.02834 -1.02198 -0.986874 -0.977631 -0.925624 -0.898441 -0.862021 -0.824175 -0.818291 -0.799436 -0.791828 -0.789802 -0.765334 -0.749178 -0.730791 -0.663257 -0.606025 -0.542834 -0.447392 -0.324785 -0.214775 -0.109579 0.00540207 0.0981386 0.189514 0.266165 0.322785 0.361147 0.381643 0.387651 0.380646 0.375392 0.333332 0.278562 0.181771 0.0812445 -0.0293257 -0.130218 -0.236976 -0.345131 -0.447729 -0.552156 -0.62591 -0.667477 -0.701934 -0.72556 -0.74137 -0.748971 -0.7707 -0.790727 -0.816845 -0.840092 -0.877649 -0.893047 -0.927653 -0.948727 -1.00089 -1.04398 -1.04074 -1.01612 -0.943772 -0.692744 -0.626 -0.846576 -0.936169 -0.89979 -0.843977 -0.805143 -0.775344 -0.734082 -0.683205 -0.661041 -0.661349 -0.657544 -0.628733 -0.62916 -0.60909 -0.597507 -0.593187 -0.560884 -0.517611 -0.464533 -0.38783 -0.282519 -0.188995 -0.093059 0.0103518 0.117341 0.202015 0.285662 0.355922 0.392566 0.396435 0.407638 0.408275 0.410342 0.374451 0.295211 0.203041 0.0987117 -0.0153489 -0.122703 -0.226231 -0.313458 -0.392889 -0.450147 -0.48669 -0.506697 -0.528972 -0.533317 -0.545177 -0.547362 -0.543333 -0.567545 -0.590982 -0.598754 -0.622868 -0.644775 -0.68905 -0.700771 -0.773314 -0.83342 -0.860959 -0.847708 -0.785708 -0.633874 -0.554003 -0.732621 -0.777812 -0.732239 -0.668916 -0.631777 -0.595879 -0.561968 -0.538785 -0.515203 -0.480516 -0.463662 -0.441735 -0.451522 -0.451614 -0.474433 -0.466248 -0.450553 -0.444303 -0.39474 -0.340277 -0.27075 -0.183209 -0.0928578 -0.00418261 0.0841548 0.191089 0.27966 0.359575 0.398006 0.413494 0.416762 0.428835 0.419982 0.380801 0.292728 0.188337 0.0750559 -0.055763 -0.1466 -0.236614 -0.294542 -0.352041 -0.385951 -0.387514 -0.394197 -0.391747 -0.370716 -0.372425 -0.364461 -0.365607 -0.363152 -0.364262 -0.38024 -0.408205 -0.420915 -0.456825 -0.478563 -0.551621 -0.620393 -0.658518 -0.672586 -0.650244 -0.536919 -0.386177 -0.522472 -0.570538 -0.516054 -0.441742 -0.396781 -0.368614 -0.334901 -0.298775 -0.268907 -0.246211 -0.226868 -0.232329 -0.259162 -0.290697 -0.302236 -0.325174 -0.329742 -0.333853 -0.31259 -0.295149 -0.253274 -0.186667 -0.0966817 -0.00829316 0.0944034 0.186442 0.27923 0.364283 0.421188 0.438862 0.436781 0.451568 0.436524 0.388134 0.299709 0.190554 0.0626035 -0.0594935 -0.159019 -0.227674 -0.273323 -0.285752 -0.30179 -0.280019 -0.270254 -0.243952 -0.212165 -0.189687 -0.176167 -0.163965 -0.157236 -0.15825 -0.180596 -0.185993 -0.196222 -0.225772 -0.275213 -0.304689 -0.37016 -0.435013 -0.473753 -0.51336 -0.442133 -0.238469 -0.330313 -0.358072 -0.296779 -0.236281 -0.184122 -0.149418 -0.128072 -0.11404 -0.0918854 -0.0736356 -0.0657543 -0.0669502 -0.103839 -0.135745 -0.165251 -0.197897 -0.230876 -0.252113 -0.269175 -0.277768 -0.255415 -0.207078 -0.129495 -0.0427451 0.0536382 0.16508 0.276699 0.366931 0.42667 0.46064 0.455112 0.471344 0.452985 0.39122 0.295975 0.168182 0.0353544 -0.0803569 -0.171241 -0.224838 -0.254422 -0.250415 -0.234283 -0.216389 -0.168539 -0.127652 -0.0884816 -0.046347 -0.0216316 -0.00704228 -0.000455372 0.00522047 0.00842232 0.00122198 0.000495379 -0.0150428 -0.0801371 -0.11388 -0.182863 -0.246288 -0.297 -0.331054 -0.367686 -0.0919578 -0.160267 -0.148934 -0.100324 -0.0340238 -5.85192e-05 0.0180222 0.0420884 0.0505135 0.0607753 0.0509138 0.0604558 0.0382014 0.00954485 -0.0339507 -0.073445 -0.108871 -0.149968 -0.198384 -0.246635 -0.267368 -0.268833 -0.226749 -0.167201 -0.0895079 0.0191929 0.131783 0.253252 0.355803 0.425548 0.453922 0.464909 0.474841 0.453525 0.395191 0.274249 0.137022 0.0116055 -0.105026 -0.190399 -0.238245 -0.249877 -0.22766 -0.185236 -0.134704 -0.0912485 -0.0383381 -0.00712552 0.0262557 0.0658543 0.0911388 0.109953 0.1397 0.156887 0.150597 0.1547 0.156797 0.100026 0.063846 -0.000846752 -0.080979 -0.119885 -0.202828 -0.277568 0.0478035 0.0280564 0.0307131 0.0870565 0.130374 0.164594 0.180624 0.199923 0.193877 0.189103 0.174058 0.158405 0.131706 0.0992308 0.0487777 -0.00253338 -0.0412112 -0.0887872 -0.140269 -0.192125 -0.247114 -0.247773 -0.242102 -0.182795 -0.105198 0.0047847 0.125078 0.23508 0.347957 0.432355 0.476113 0.488698 0.503716 0.469683 0.389932 0.268488 0.139993 0.000111401 -0.120121 -0.22085 -0.250227 -0.24289 -0.217685 -0.177971 -0.134048 -0.0905425 -0.0207055 0.0497005 0.0949086 0.118863 0.156983 0.203484 0.230919 0.266552 0.277847 0.274196 0.282048 0.234772 0.205302 0.133562 0.0682771 0.0224211 -0.107502 -0.209832 0.171376 0.169761 0.180247 0.224245 0.255241 0.29928 0.315975 0.317969 0.299386 0.2862 0.252014 0.229877 0.184545 0.122161 0.0733263 0.0170394 -0.022685 -0.0788589 -0.138346 -0.19729 -0.224196 -0.238189 -0.24213 -0.183139 -0.109583 -0.00935483 0.105422 0.229027 0.344875 0.427135 0.478346 0.495446 0.509161 0.478788 0.402331 0.28637 0.138366 -0.0170523 -0.149914 -0.226287 -0.272153 -0.255581 -0.241184 -0.205661 -0.181109 -0.112126 -0.0503039 0.0263913 0.0858718 0.148126 0.190285 0.229037 0.281667 0.318716 0.35767 0.383538 0.361324 0.32417 0.300205 0.250695 0.198061 0.118537 -0.0163278 -0.15001 0.265941 0.281748 0.284893 0.31777 0.359887 0.391814 0.391232 0.383874 0.364629 0.353595 0.306493 0.258174 0.178427 0.110225 0.0575311 0.0160789 -0.0446811 -0.113835 -0.171571 -0.214821 -0.243469 -0.246121 -0.233278 -0.171881 -0.0966432 0.00132306 0.115176 0.245626 0.353779 0.448599 0.493841 0.526161 0.530869 0.500821 0.424322 0.279997 0.11037 -0.0216219 -0.143683 -0.214119 -0.262683 -0.265056 -0.257386 -0.244086 -0.217104 -0.174815 -0.127561 -0.0467833 0.0368297 0.128137 0.208621 0.25566 0.300321 0.355728 0.398496 0.438205 0.422951 0.391395 0.363133 0.319515 0.252845 0.201994 0.0598497 -0.109391 0.330351 0.351899 0.367688 0.404985 0.422827 0.4593 0.452386 0.436618 0.411272 0.394144 0.322644 0.250359 0.171096 0.100705 0.0244054 -0.0435848 -0.101139 -0.162981 -0.206349 -0.234555 -0.254921 -0.257126 -0.260692 -0.186519 -0.100134 0.00529424 0.133235 0.26209 0.386586 0.471003 0.526206 0.555043 0.555286 0.523356 0.436796 0.273057 0.115735 -0.0227952 -0.140459 -0.218769 -0.283318 -0.30566 -0.296738 -0.295838 -0.289458 -0.263751 -0.218333 -0.126337 -0.0246241 0.0704121 0.174163 0.264661 0.321264 0.382641 0.439814 0.473956 0.487909 0.459255 0.434456 0.386146 0.33147 0.27777 0.129263 -0.0759981 0.384196 0.413893 0.427195 0.446578 0.464828 0.496467 0.492234 0.464731 0.438608 0.38382 0.302985 0.224816 0.145357 0.048306 -0.0409419 -0.112637 -0.167921 -0.242293 -0.274683 -0.300017 -0.303724 -0.28425 -0.250366 -0.187876 -0.106561 0.0152084 0.133124 0.276346 0.409728 0.500317 0.562368 0.592091 0.591713 0.55115 0.449023 0.283764 0.128568 -0.0430654 -0.175125 -0.256405 -0.317953 -0.370492 -0.386629 -0.390966 -0.38627 -0.35015 -0.290763 -0.196251 -0.0868719 0.0197691 0.135865 0.238851 0.328465 0.387357 0.450035 0.496539 0.510261 0.488328 0.468175 0.433899 0.385458 0.323909 0.173382 -0.0529267 0.421022 0.457159 0.464919 0.484183 0.502783 0.522405 0.517965 0.489048 0.435037 0.352157 0.277177 0.193778 0.0854924 -0.0161897 -0.0979665 -0.182291 -0.250687 -0.307384 -0.340754 -0.362357 -0.355392 -0.342342 -0.277537 -0.194375 -0.105957 0.00653534 0.146109 0.282486 0.43002 0.522753 0.589018 0.619871 0.621468 0.57276 0.465865 0.299414 0.121113 -0.0438966 -0.177867 -0.294523 -0.364354 -0.43059 -0.463994 -0.483929 -0.476351 -0.446855 -0.368129 -0.280234 -0.149526 -0.0328559 0.11433 0.218178 0.312849 0.396465 0.457366 0.515002 0.533506 0.518863 0.504785 0.473152 0.417708 0.36323 0.201699 -0.0381462 0.445409 0.495448 0.496428 0.518382 0.533811 0.547224 0.531414 0.491517 0.422134 0.343989 0.261976 0.152704 0.0381952 -0.0579609 -0.145852 -0.24091 -0.346135 -0.399986 -0.432896 -0.440595 -0.414658 -0.390709 -0.319721 -0.231174 -0.12471 -0.00218321 0.145164 0.290313 0.440015 0.555281 0.619389 0.660794 0.654054 0.600348 0.488579 0.31238 0.118491 -0.0576104 -0.203755 -0.335461 -0.428671 -0.50595 -0.546154 -0.571644 -0.567703 -0.525295 -0.446079 -0.350235 -0.229671 -0.0785075 0.0655591 0.189721 0.303213 0.390047 0.469864 0.528161 0.555942 0.53398 0.524889 0.497242 0.443136 0.381647 0.222248 -0.025013 0.462511 0.522579 0.514577 0.537236 0.54255 0.555818 0.538235 0.490443 0.407043 0.334662 0.223873 0.11528 -0.00816149 -0.108343 -0.213844 -0.321029 -0.426723 -0.486877 -0.50573 -0.520173 -0.494501 -0.457138 -0.382954 -0.276575 -0.149682 -0.02239 0.129059 0.289649 0.455767 0.579476 0.651854 0.686982 0.687194 0.624968 0.503636 0.312497 0.112896 -0.0830295 -0.25458 -0.391495 -0.484794 -0.560844 -0.620869 -0.644189 -0.640804 -0.580092 -0.50242 -0.419425 -0.28322 -0.149999 0.00212272 0.151706 0.281512 0.377442 0.463426 0.529994 0.564833 0.545408 0.53561 0.513365 0.447551 0.397461 0.236026 -0.0137717 0.480196 0.532797 0.530868 0.549531 0.559865 0.56639 0.546606 0.486976 0.394042 0.292863 0.18316 0.0701304 -0.0439549 -0.165721 -0.289572 -0.402295 -0.511191 -0.55263 -0.594096 -0.593003 -0.560143 -0.513279 -0.43578 -0.318437 -0.179352 -0.0261658 0.142816 0.293685 0.462783 0.592938 0.676487 0.719552 0.723424 0.658693 0.523832 0.314332 0.0907344 -0.125106 -0.311115 -0.44106 -0.524372 -0.607723 -0.664885 -0.693294 -0.69176 -0.635587 -0.562101 -0.460159 -0.34259 -0.196041 -0.0580108 0.0912675 0.250584 0.376199 0.455073 0.524713 0.572538 0.557911 0.546345 0.524894 0.463492 0.399271 0.24153 -0.0149952 0.47937 0.541021 0.538005 0.549017 0.564405 0.568146 0.539803 0.468857 0.369085 0.25251 0.145895 0.0221585 -0.101502 -0.229969 -0.348926 -0.465671 -0.555659 -0.616931 -0.638084 -0.64347 -0.625175 -0.561629 -0.473873 -0.348963 -0.222373 -0.0502897 0.124103 0.296565 0.47689 0.611742 0.705669 0.749352 0.742624 0.682009 0.525806 0.310388 0.0837404 -0.134223 -0.315297 -0.460128 -0.552249 -0.639345 -0.692576 -0.728975 -0.716099 -0.668564 -0.601805 -0.507735 -0.386351 -0.236314 -0.0963235 0.0590578 0.207976 0.35747 0.441407 0.518601 0.576773 0.56857 0.553654 0.529911 0.472864 0.406223 0.241775 -0.0165513 0.47031 0.543078 0.547985 0.556191 0.558787 0.559177 0.532419 0.446617 0.337778 0.226183 0.106511 -0.00947221 -0.125551 -0.27136 -0.406329 -0.511494 -0.598721 -0.652321 -0.681885 -0.69455 -0.662596 -0.594448 -0.507605 -0.375998 -0.230892 -0.0697552 0.114754 0.28272 0.480634 0.629747 0.731431 0.778586 0.773378 0.704979 0.544583 0.322255 0.0768257 -0.143633 -0.341152 -0.49388 -0.598127 -0.672662 -0.733256 -0.750128 -0.744115 -0.704409 -0.629136 -0.54061 -0.419534 -0.273865 -0.109969 0.0363415 0.183498 0.332543 0.439913 0.512528 0.566941 0.559367 0.55277 0.529902 0.47333 0.410902 0.242521 -0.0209333 0.460729 0.540757 0.538918 0.555126 0.550895 0.55452 0.504621 0.418447 0.32302 0.206561 0.0936956 -0.044769 -0.165936 -0.300391 -0.43353 -0.545217 -0.627747 -0.685985 -0.716362 -0.715883 -0.687434 -0.628863 -0.549887 -0.416533 -0.251631 -0.0777063 0.0990899 0.279163 0.482212 0.642756 0.743729 0.800551 0.803913 0.720199 0.563004 0.334656 0.0783293 -0.143474 -0.34058 -0.488458 -0.619802 -0.701871 -0.750558 -0.781205 -0.779361 -0.724289 -0.654081 -0.561644 -0.451978 -0.299912 -0.148231 0.0179891 0.171906 0.312764 0.418517 0.506107 0.564469 0.555151 0.545621 0.523802 0.466606 0.404266 0.235059 -0.0351635 0.448264 0.525362 0.525068 0.542973 0.541803 0.53987 0.483586 0.403744 0.309675 0.192709 0.0674722 -0.0663426 -0.202169 -0.341345 -0.468053 -0.58017 -0.651342 -0.712509 -0.747622 -0.757355 -0.719962 -0.650702 -0.577264 -0.435814 -0.270346 -0.105294 0.0887112 0.273962 0.48808 0.652916 0.760711 0.825396 0.828789 0.747714 0.586088 0.35137 0.0917012 -0.146222 -0.336383 -0.476663 -0.608337 -0.68802 -0.731009 -0.769161 -0.7736 -0.760159 -0.691674 -0.598177 -0.467286 -0.339502 -0.179887 -0.0129347 0.15553 0.296721 0.403212 0.498487 0.559552 0.547052 0.530549 0.51089 0.45785 0.392309 0.221633 -0.0593404 0.431051 0.49816 0.509392 0.525344 0.526637 0.519202 0.465041 0.392674 0.281507 0.168599 0.0335525 -0.105237 -0.237062 -0.371204 -0.4947 -0.605241 -0.683511 -0.750824 -0.779189 -0.777216 -0.726032 -0.654834 -0.584672 -0.433647 -0.272578 -0.0929733 0.0941347 0.287802 0.510579 0.676941 0.780242 0.845555 0.849621 0.764164 0.608428 0.379095 0.118372 -0.115747 -0.304928 -0.452949 -0.58103 -0.666416 -0.718153 -0.747364 -0.766732 -0.757916 -0.712652 -0.62107 -0.505981 -0.365586 -0.209832 -0.0315259 0.124279 0.275997 0.389661 0.48066 0.54736 0.530416 0.517103 0.496984 0.444459 0.373334 0.196235 -0.0786097 0.40017 0.470316 0.490695 0.502527 0.503242 0.495007 0.449448 0.364648 0.249894 0.121813 -0.0118639 -0.138278 -0.271031 -0.403109 -0.525958 -0.627233 -0.706724 -0.762388 -0.787808 -0.777218 -0.719089 -0.65165 -0.563737 -0.429807 -0.283336 -0.104646 0.0944222 0.311643 0.526547 0.690328 0.800229 0.857452 0.862823 0.78137 0.629295 0.407691 0.161071 -0.0713996 -0.266498 -0.413416 -0.542568 -0.639849 -0.698309 -0.754368 -0.764153 -0.748731 -0.71713 -0.6343 -0.536116 -0.407213 -0.246342 -0.0604391 0.0963163 0.253237 0.363598 0.463261 0.520759 0.510515 0.496232 0.475503 0.429529 0.348801 0.163389 -0.11312 0.368328 0.436651 0.454846 0.479863 0.484376 0.475446 0.422052 0.335184 0.201904 0.0830957 -0.0407864 -0.170449 -0.307792 -0.43625 -0.575988 -0.657445 -0.734325 -0.76421 -0.76975 -0.764421 -0.71307 -0.635639 -0.546423 -0.40494 -0.266261 -0.0785879 0.115116 0.339584 0.554355 0.710263 0.818209 0.87483 0.880123 0.803544 0.647378 0.443499 0.195445 -0.0271959 -0.224352 -0.375611 -0.503184 -0.621996 -0.683057 -0.737728 -0.747334 -0.727168 -0.694325 -0.642901 -0.556766 -0.430459 -0.276431 -0.108791 0.063157 0.213817 0.332183 0.433206 0.501467 0.494149 0.479619 0.454566 0.40154 0.317844 0.128996 -0.152991 0.323492 0.402585 0.430159 0.454912 0.453042 0.448046 0.395045 0.290769 0.171449 0.0425998 -0.0751376 -0.210511 -0.339909 -0.476283 -0.588102 -0.676487 -0.740826 -0.762612 -0.764131 -0.73625 -0.68256 -0.615414 -0.505051 -0.374415 -0.225278 -0.0520771 0.159299 0.379833 0.585895 0.735315 0.841891 0.892866 0.896826 0.824824 0.676938 0.466195 0.23307 0.0266246 -0.163157 -0.328765 -0.461256 -0.578321 -0.662225 -0.723544 -0.7337 -0.713919 -0.687109 -0.642701 -0.559138 -0.439579 -0.303377 -0.133148 0.0172082 0.173885 0.303842 0.413012 0.481191 0.473714 0.457964 0.424045 0.368906 0.284043 0.104647 -0.196534 0.269746 0.356346 0.391631 0.415524 0.423533 0.420958 0.357538 0.259025 0.136652 0.019961 -0.100549 -0.237057 -0.363351 -0.485789 -0.601365 -0.673219 -0.728273 -0.753372 -0.754452 -0.7191 -0.637243 -0.555286 -0.465014 -0.322639 -0.186948 -0.0177147 0.198313 0.410162 0.605371 0.757767 0.860032 0.908664 0.907475 0.835686 0.700476 0.504161 0.281149 0.0735637 -0.115701 -0.287931 -0.423144 -0.545609 -0.641613 -0.704926 -0.734679 -0.735926 -0.699484 -0.645765 -0.561729 -0.453151 -0.313966 -0.165477 -0.000522663 0.145937 0.265668 0.371098 0.452778 0.440396 0.42307 0.385856 0.332995 0.241241 0.0582935 -0.237121 0.220122 0.302771 0.336704 0.376356 0.386446 0.37264 0.314498 0.219921 0.1128 -0.00528499 -0.127101 -0.244585 -0.390492 -0.507492 -0.596514 -0.670998 -0.734573 -0.763616 -0.753614 -0.702255 -0.622795 -0.540151 -0.424819 -0.298438 -0.151396 0.0301875 0.231957 0.440474 0.630477 0.770296 0.873393 0.921737 0.917983 0.853682 0.727222 0.539324 0.321412 0.117649 -0.05432 -0.214061 -0.369283 -0.496627 -0.615849 -0.689286 -0.735802 -0.744035 -0.722545 -0.655239 -0.578156 -0.464902 -0.336282 -0.189714 -0.0281204 0.118201 0.234606 0.336946 0.403325 0.405282 0.392448 0.361613 0.295019 0.200196 0.0141166 -0.276637 0.16355 0.241145 0.279359 0.310985 0.340814 0.317763 0.265651 0.188193 0.0846184 -0.0263237 -0.15044 -0.290735 -0.419884 -0.519004 -0.598067 -0.692167 -0.752846 -0.763631 -0.739425 -0.701204 -0.600177 -0.50607 -0.400643 -0.266298 -0.114291 0.0657947 0.261585 0.469084 0.656624 0.791039 0.892862 0.935127 0.929086 0.867815 0.749614 0.568905 0.361993 0.15715 -0.0165892 -0.169033 -0.313842 -0.460898 -0.570045 -0.675375 -0.710397 -0.729711 -0.70778 -0.675432 -0.610165 -0.500117 -0.370584 -0.205877 -0.0633748 0.0996937 0.212267 0.299379 0.364956 0.365884 0.361703 0.323688 0.247572 0.14111 -0.02842 -0.324257 0.121457 0.181584 0.218683 0.266422 0.279829 0.279673 0.24252 0.165046 0.0602998 -0.0568321 -0.170777 -0.309665 -0.443413 -0.545811 -0.638346 -0.712007 -0.74709 -0.752559 -0.740337 -0.672164 -0.581747 -0.48517 -0.38404 -0.23525 -0.0783383 0.104819 0.301141 0.504024 0.681123 0.811749 0.905015 0.940664 0.935902 0.881941 0.774404 0.592921 0.386817 0.17689 0.0154769 -0.135895 -0.268665 -0.423916 -0.549396 -0.64624 -0.726164 -0.73266 -0.708371 -0.678597 -0.621089 -0.523149 -0.395111 -0.226424 -0.0848446 0.0537747 0.177044 0.269891 0.336752 0.338499 0.323547 0.275892 0.207185 0.0904529 -0.0746288 -0.367478 0.0461743 0.128064 0.17376 0.216627 0.228534 0.240256 0.217474 0.125123 0.0302109 -0.0855189 -0.198107 -0.325827 -0.448158 -0.572425 -0.649911 -0.710071 -0.747342 -0.737953 -0.718466 -0.642863 -0.553797 -0.43784 -0.339653 -0.190103 -0.0401028 0.137208 0.331863 0.529475 0.692832 0.824278 0.904019 0.944261 0.939058 0.886787 0.785091 0.621517 0.419967 0.207218 0.0520567 -0.0876416 -0.230453 -0.367908 -0.495719 -0.624392 -0.691273 -0.710847 -0.717442 -0.680976 -0.622382 -0.527369 -0.407375 -0.257103 -0.13095 0.0207494 0.136508 0.230313 0.303709 0.312822 0.286306 0.229979 0.160329 0.0348693 -0.123969 -0.412148 -0.0138002 0.0740943 0.121843 0.170202 0.184012 0.207975 0.173102 0.0921324 -0.0131716 -0.107393 -0.218897 -0.348485 -0.464967 -0.579104 -0.664029 -0.708312 -0.730638 -0.734037 -0.688787 -0.623269 -0.522401 -0.423313 -0.297411 -0.159999 -0.00294449 0.177809 0.368138 0.558841 0.712053 0.833702 0.91206 0.952527 0.951185 0.900666 0.804354 0.648696 0.440887 0.262006 0.0984581 -0.0486673 -0.188873 -0.336229 -0.464145 -0.587608 -0.668801 -0.705552 -0.697626 -0.675801 -0.619413 -0.529613 -0.419975 -0.293332 -0.154182 -0.0088996 0.0980297 0.176761 0.264309 0.275794 0.240829 0.18862 0.103424 -0.0142933 -0.177772 -0.447715 -0.0666388 0.0115831 0.0677571 0.117732 0.13769 0.161491 0.12727 0.0480984 -0.0444979 -0.129699 -0.243287 -0.369529 -0.483582 -0.575691 -0.643725 -0.695373 -0.724571 -0.71029 -0.663888 -0.603065 -0.499863 -0.401702 -0.301417 -0.146066 0.0190077 0.192816 0.39001 0.57557 0.730277 0.84072 0.917339 0.955434 0.953337 0.918881 0.821515 0.68033 0.489445 0.30443 0.129272 -0.0309183 -0.179921 -0.321639 -0.446013 -0.556689 -0.662612 -0.695037 -0.689887 -0.664137 -0.613486 -0.536901 -0.434246 -0.314295 -0.181945 -0.0396517 0.0602269 0.135776 0.212717 0.226669 0.199817 0.141687 0.0447946 -0.0684673 -0.230778 -0.485648 -0.126535 -0.0507939 0.0144786 0.0709332 0.0864383 0.0993061 0.0723015 0.0111084 -0.0707973 -0.135834 -0.254619 -0.370568 -0.492646 -0.576859 -0.638335 -0.684141 -0.710392 -0.712851 -0.667424 -0.609666 -0.513214 -0.413342 -0.292695 -0.147908 0.0198012 0.195798 0.386821 0.583698 0.741394 0.855374 0.923903 0.967218 0.964723 0.932172 0.846069 0.708283 0.531071 0.338235 0.171568 0.0136235 -0.128885 -0.273975 -0.401124 -0.524985 -0.627125 -0.682237 -0.682875 -0.67027 -0.626378 -0.540608 -0.446804 -0.345372 -0.219811 -0.0701615 0.0375826 0.0985814 0.167666 0.17896 0.147875 0.0824557 -0.0137013 -0.128881 -0.279764 -0.525548 -0.177142 -0.106583 -0.0266917 0.0296014 0.0360235 0.0536574 0.0304563 -0.0287355 -0.076833 -0.155763 -0.268602 -0.392045 -0.495555 -0.572579 -0.636506 -0.676901 -0.705584 -0.692376 -0.645662 -0.573331 -0.501284 -0.408254 -0.287065 -0.139625 0.0230849 0.196244 0.403068 0.588494 0.747586 0.864404 0.930297 0.967876 0.970087 0.945402 0.868663 0.736774 0.572461 0.3915 0.208965 0.0576502 -0.0842158 -0.240478 -0.373505 -0.473717 -0.588081 -0.653359 -0.667946 -0.662244 -0.619899 -0.546138 -0.456239 -0.368375 -0.250027 -0.0986592 0.0064923 0.0629524 0.129191 0.125901 0.0999754 0.0326491 -0.0733242 -0.176073 -0.319143 -0.554536 -0.212063 -0.146497 -0.0707645 -0.0170506 -0.0103801 0.00920573 0.000813591 -0.0592189 -0.103256 -0.180264 -0.289643 -0.397987 -0.494899 -0.564764 -0.636549 -0.694052 -0.699526 -0.684395 -0.646255 -0.578376 -0.500721 -0.411278 -0.279579 -0.128774 0.0312808 0.218257 0.432566 0.618896 0.761584 0.871467 0.939675 0.975154 0.975815 0.95453 0.883654 0.756405 0.611239 0.439634 0.274913 0.107307 -0.0411088 -0.200402 -0.339665 -0.453102 -0.543055 -0.610863 -0.641928 -0.65024 -0.633806 -0.5543 -0.472465 -0.374214 -0.269168 -0.130298 -0.0368456 0.0281682 0.0794516 0.0759343 0.0529345 -0.0180436 -0.125933 -0.226678 -0.359903 -0.577054 -0.226068 -0.182695 -0.11303 -0.066541 -0.0621366 -0.0250592 -0.0348994 -0.0921724 -0.130394 -0.207521 -0.317076 -0.411795 -0.499679 -0.564471 -0.643269 -0.69873 -0.703254 -0.678695 -0.621925 -0.549361 -0.463086 -0.38519 -0.256666 -0.12028 0.0538324 0.243339 0.451956 0.631809 0.772953 0.878108 0.945496 0.983216 0.984442 0.959609 0.896261 0.781392 0.630737 0.480542 0.326655 0.16866 -0.00322454 -0.152502 -0.296554 -0.421393 -0.504887 -0.581254 -0.626082 -0.628436 -0.610593 -0.561632 -0.495599 -0.390743 -0.279092 -0.168148 -0.0817631 -0.0141073 0.0410652 0.037049 0.00787673 -0.0655571 -0.174344 -0.275592 -0.40542 -0.596432 -0.276629 -0.212183 -0.15825 -0.118101 -0.100657 -0.0754179 -0.0777089 -0.125688 -0.153655 -0.234903 -0.332984 -0.432057 -0.530039 -0.591017 -0.651763 -0.688972 -0.68718 -0.658831 -0.599105 -0.531138 -0.460215 -0.367249 -0.259867 -0.110704 0.0568918 0.265388 0.477959 0.657915 0.787442 0.887521 0.948936 0.986215 0.990612 0.966004 0.909734 0.804403 0.666237 0.517241 0.376108 0.234823 0.0650859 -0.0967499 -0.237948 -0.377561 -0.473097 -0.53831 -0.592033 -0.61524 -0.610446 -0.560692 -0.495523 -0.407331 -0.30134 -0.199904 -0.116949 -0.0502158 -0.00424887 -0.0126459 -0.0375865 -0.103452 -0.21285 -0.31713 -0.437901 -0.597514 -0.294716 -0.244405 -0.198626 -0.152085 -0.132109 -0.109046 -0.122663 -0.14899 -0.189135 -0.256811 -0.352697 -0.447552 -0.533922 -0.584826 -0.62568 -0.645273 -0.651047 -0.62653 -0.56891 -0.509734 -0.426827 -0.35882 -0.236144 -0.0968863 0.077131 0.279233 0.489033 0.670405 0.800293 0.89803 0.960586 0.998295 1.00414 0.984169 0.930284 0.834711 0.704029 0.554184 0.419299 0.297424 0.139235 -0.0326578 -0.175786 -0.315862 -0.432158 -0.501341 -0.556074 -0.592804 -0.600381 -0.562038 -0.505395 -0.422647 -0.320544 -0.224317 -0.148365 -0.085793 -0.0437474 -0.0558653 -0.083523 -0.148984 -0.256286 -0.358354 -0.481684 -0.613689 -0.325321 -0.28178 -0.238506 -0.196963 -0.177132 -0.161805 -0.152171 -0.172605 -0.217398 -0.277496 -0.370586 -0.44929 -0.520915 -0.566462 -0.600168 -0.625014 -0.635473 -0.59578 -0.545113 -0.507977 -0.421871 -0.347144 -0.233066 -0.0903134 0.08965 0.290116 0.500624 0.671247 0.810473 0.905104 0.963364 1.00231 1.01079 0.991502 0.939829 0.848902 0.733663 0.597334 0.466056 0.351339 0.206041 0.0360552 -0.121488 -0.27191 -0.377034 -0.477999 -0.537092 -0.565671 -0.581832 -0.566487 -0.511276 -0.444038 -0.35635 -0.253416 -0.166762 -0.117511 -0.0767922 -0.0941037 -0.12785 -0.179788 -0.292786 -0.401424 -0.52034 -0.635614 -0.357148 -0.321366 -0.282473 -0.248757 -0.235824 -0.198165 -0.198644 -0.22477 -0.252705 -0.314726 -0.385848 -0.449386 -0.512051 -0.558453 -0.58941 -0.617687 -0.616863 -0.578728 -0.536345 -0.482985 -0.405517 -0.350558 -0.229633 -0.0872913 0.0902692 0.290203 0.499324 0.676315 0.816721 0.908507 0.967189 1.00425 1.01176 0.996735 0.948512 0.859987 0.754338 0.630176 0.509331 0.392087 0.256627 0.0993854 -0.0586972 -0.215064 -0.34578 -0.443417 -0.504827 -0.546958 -0.555804 -0.54729 -0.516079 -0.457943 -0.389469 -0.283514 -0.207085 -0.152447 -0.128456 -0.130605 -0.16484 -0.224404 -0.32938 -0.440264 -0.551835 -0.646343 -0.386857 -0.356382 -0.320775 -0.302888 -0.286374 -0.242409 -0.251266 -0.261365 -0.284566 -0.342417 -0.391294 -0.457198 -0.502198 -0.555532 -0.57115 -0.589271 -0.592055 -0.559905 -0.525748 -0.468954 -0.4009 -0.325695 -0.220233 -0.0833853 0.0940416 0.292125 0.507914 0.693202 0.828661 0.914765 0.973636 1.00769 1.01484 1.00525 0.96086 0.879863 0.777322 0.660514 0.543738 0.439549 0.304861 0.154163 0.00412823 -0.146019 -0.302608 -0.403488 -0.474146 -0.509683 -0.543717 -0.540026 -0.513863 -0.46956 -0.403082 -0.317892 -0.238665 -0.192825 -0.172398 -0.170881 -0.195224 -0.252063 -0.366373 -0.472404 -0.580048 -0.665776 -0.411789 -0.384466 -0.359242 -0.355879 -0.339186 -0.292461 -0.296712 -0.296076 -0.318455 -0.35975 -0.41977 -0.464832 -0.50846 -0.540558 -0.555871 -0.572709 -0.566515 -0.560528 -0.517666 -0.452474 -0.384839 -0.313361 -0.211458 -0.0726156 0.104611 0.308661 0.529525 0.705828 0.840458 0.921642 0.979496 1.01234 1.02109 1.00937 0.965813 0.886908 0.787879 0.680803 0.57852 0.47947 0.354105 0.197256 0.0497674 -0.109021 -0.251276 -0.356773 -0.445659 -0.498374 -0.54011 -0.532119 -0.526041 -0.481907 -0.422801 -0.355449 -0.281615 -0.228514 -0.207326 -0.217331 -0.244992 -0.288281 -0.405458 -0.503676 -0.607757 -0.676712 -0.438276 -0.422606 -0.408483 -0.405933 -0.397737 -0.335268 -0.334882 -0.333359 -0.346326 -0.376175 -0.436357 -0.477517 -0.510083 -0.53257 -0.544038 -0.541488 -0.546604 -0.524191 -0.489981 -0.441814 -0.367095 -0.295299 -0.198705 -0.0461613 0.130828 0.349976 0.549871 0.722418 0.85439 0.930545 0.986522 1.01947 1.02621 1.01031 0.964475 0.886628 0.796521 0.700248 0.606793 0.516313 0.388842 0.238306 0.0958632 -0.0612127 -0.208588 -0.315897 -0.427247 -0.481619 -0.539003 -0.537673 -0.517634 -0.496048 -0.43618 -0.38223 -0.332418 -0.267265 -0.24997 -0.262512 -0.299946 -0.337538 -0.444166 -0.545159 -0.645965 -0.689973 -0.472248 -0.464112 -0.455799 -0.449089 -0.435715 -0.385756 -0.364062 -0.354645 -0.372214 -0.399963 -0.456052 -0.495936 -0.520191 -0.525123 -0.533622 -0.530164 -0.525059 -0.495569 -0.467084 -0.422116 -0.362008 -0.284979 -0.170865 -0.0206313 0.163264 0.366503 0.563517 0.735712 0.860256 0.939639 0.99359 1.02508 1.03231 1.01733 0.97076 0.896259 0.810386 0.718594 0.6385 0.547615 0.431421 0.292971 0.14149 -0.0210413 -0.174062 -0.295372 -0.397394 -0.464009 -0.528107 -0.543905 -0.534299 -0.494662 -0.450239 -0.418209 -0.364777 -0.305414 -0.294577 -0.316244 -0.340954 -0.3818 -0.473456 -0.577481 -0.676815 -0.701691 -0.506094 -0.510585 -0.517896 -0.51001 -0.484974 -0.431872 -0.393156 -0.379912 -0.401757 -0.423082 -0.469275 -0.521039 -0.528032 -0.527877 -0.525817 -0.518608 -0.50807 -0.471323 -0.448101 -0.401342 -0.336903 -0.257107 -0.148365 0.00235471 0.173819 0.383873 0.567713 0.737836 0.85858 0.937725 0.988472 1.01928 1.02741 1.01555 0.967588 0.891956 0.810649 0.724348 0.646627 0.554394 0.455253 0.319307 0.170172 0.0102845 -0.149648 -0.278343 -0.382425 -0.448663 -0.516394 -0.553905 -0.552979 -0.520652 -0.47737 -0.433025 -0.396385 -0.344111 -0.336933 -0.36818 -0.375804 -0.434257 -0.514208 -0.61011 -0.698437 -0.713942 -0.535586 -0.552141 -0.573323 -0.553344 -0.521619 -0.464348 -0.407479 -0.398177 -0.425301 -0.441577 -0.486827 -0.510357 -0.51218 -0.50928 -0.497125 -0.484101 -0.464849 -0.442326 -0.399996 -0.344665 -0.281071 -0.204153 -0.105917 0.0288438 0.200623 0.399895 0.595092 0.748257 0.867778 0.946647 0.997279 1.02533 1.03317 1.02153 0.976746 0.901735 0.82046 0.731694 0.660749 0.573619 0.469904 0.348328 0.205802 0.0417403 -0.115537 -0.254929 -0.359285 -0.43938 -0.496153 -0.553697 -0.570713 -0.542612 -0.5001 -0.445789 -0.429992 -0.377283 -0.360556 -0.412976 -0.429336 -0.473174 -0.554581 -0.644314 -0.725212 -0.718929 -0.572105 -0.596862 -0.623693 -0.602686 -0.557857 -0.488093 -0.43448 -0.431146 -0.441825 -0.457708 -0.472147 -0.502559 -0.487835 -0.47418 -0.465495 -0.451684 -0.430403 -0.391263 -0.346721 -0.297552 -0.223015 -0.150309 -0.0673602 0.0597997 0.227841 0.425225 0.616252 0.768947 0.886305 0.957647 1.00569 1.02943 1.03651 1.02501 0.984571 0.907328 0.825869 0.738722 0.675627 0.58951 0.479449 0.358759 0.219307 0.0661684 -0.0932681 -0.225464 -0.335096 -0.41186 -0.49651 -0.539356 -0.559773 -0.566245 -0.519299 -0.48303 -0.44976 -0.407647 -0.417065 -0.447826 -0.46333 -0.508288 -0.594795 -0.67741 -0.75162 -0.700229 -0.565328 -0.613532 -0.652342 -0.632978 -0.582838 -0.513174 -0.463736 -0.452727 -0.459999 -0.460868 -0.471343 -0.479076 -0.463779 -0.454725 -0.428353 -0.401959 -0.382525 -0.338015 -0.292882 -0.24019 -0.169613 -0.0894404 -0.00405821 0.125109 0.276694 0.460605 0.637275 0.782362 0.889858 0.957106 1.00494 1.02591 1.02993 1.02167 0.977383 0.900961 0.820577 0.738165 0.675013 0.594347 0.493438 0.375657 0.235353 0.0874931 -0.0564586 -0.186934 -0.295986 -0.380978 -0.459857 -0.518991 -0.558935 -0.556022 -0.539092 -0.491862 -0.478492 -0.449197 -0.447273 -0.484167 -0.518142 -0.547088 -0.630431 -0.723353 -0.78999 -0.693415 -0.57195 -0.649608 -0.680522 -0.663732 -0.609909 -0.539021 -0.474152 -0.471628 -0.463374 -0.449252 -0.446574 -0.437292 -0.408948 -0.395577 -0.379302 -0.34727 -0.31107 -0.251617 -0.207623 -0.147363 -0.0783122 -0.00173279 0.0853848 0.197788 0.352341 0.52515 0.686246 0.820001 0.910472 0.972977 1.01536 1.03133 1.03672 1.02528 0.980899 0.912085 0.828923 0.742713 0.677514 0.600814 0.507548 0.391288 0.261405 0.118217 -0.0321298 -0.155995 -0.249119 -0.337334 -0.417549 -0.481 -0.529889 -0.549733 -0.536175 -0.512156 -0.498308 -0.485824 -0.507289 -0.512031 -0.554728 -0.581526 -0.666558 -0.763331 -0.823017 -0.693681 -0.588766 -0.679886 -0.698202 -0.682999 -0.632914 -0.554114 -0.494643 -0.475239 -0.442475 -0.424243 -0.400474 -0.383962 -0.362208 -0.336386 -0.299733 -0.258047 -0.210241 -0.160676 -0.105335 -0.0453589 0.0271168 0.107068 0.197967 0.292478 0.421814 0.584466 0.727638 0.847133 0.927321 0.988403 1.02348 1.04236 1.04593 1.03259 0.986174 0.915696 0.836194 0.759583 0.68726 0.616732 0.531641 0.421505 0.306894 0.168795 0.0214383 -0.104127 -0.207997 -0.295621 -0.376954 -0.437911 -0.487793 -0.509193 -0.511991 -0.507521 -0.515201 -0.525446 -0.544781 -0.556047 -0.584627 -0.611589 -0.703422 -0.795517 -0.851596 -0.703951 -0.608098 -0.714541 -0.74445 -0.728924 -0.664986 -0.570199 -0.514233 -0.462304 -0.423913 -0.394244 -0.353341 -0.339347 -0.305475 -0.252682 -0.202914 -0.16095 -0.108204 -0.0545591 0.00938562 0.0770088 0.152088 0.217473 0.293935 0.387739 0.511078 0.64598 0.766982 0.870673 0.944997 0.996173 1.03393 1.0494 1.05571 1.03987 0.999799 0.932419 0.849698 0.779707 0.709606 0.639795 0.555772 0.452335 0.338833 0.215975 0.0705221 -0.0598043 -0.158056 -0.240211 -0.313948 -0.376943 -0.451251 -0.468092 -0.47679 -0.483174 -0.514226 -0.546368 -0.576092 -0.60536 -0.634362 -0.651314 -0.733163 -0.832952 -0.885756 -0.717773 -0.640295 -0.743679 -0.770036 -0.756076 -0.680809 -0.581949 -0.512263 -0.446155 -0.382836 -0.350537 -0.317168 -0.283258 -0.225559 -0.155587 -0.08778 -0.0381715 0.00779778 0.0654811 0.12877 0.193792 0.265454 0.325123 0.401216 0.48199 0.583381 0.705483 0.808366 0.89694 0.96089 1.00916 1.04259 1.05336 1.06128 1.04998 1.01392 0.952215 0.874545 0.805214 0.733981 0.661669 0.584329 0.490665 0.393226 0.274387 0.149593 0.0321037 -0.0724886 -0.169613 -0.250583 -0.31342 -0.392545 -0.426163 -0.434562 -0.449013 -0.499153 -0.548081 -0.593756 -0.646982 -0.667913 -0.692474 -0.762692 -0.864056 -0.908134 -0.731903 -0.679648 -0.779609 -0.806365 -0.760981 -0.702115 -0.595076 -0.514012 -0.418415 -0.330554 -0.303975 -0.268788 -0.208768 -0.131943 -0.0556742 0.0124054 0.0740057 0.116819 0.173222 0.239633 0.296985 0.365197 0.431861 0.50193 0.577489 0.664332 0.759038 0.846855 0.930605 0.991084 1.03638 1.06764 1.08246 1.08353 1.07337 1.03996 0.983507 0.908368 0.837352 0.766769 0.700821 0.630733 0.536394 0.44867 0.329007 0.218067 0.100106 -0.000945719 -0.0949625 -0.173968 -0.245991 -0.314168 -0.370372 -0.393306 -0.414943 -0.462563 -0.533377 -0.597853 -0.653463 -0.69833 -0.72557 -0.794748 -0.886308 -0.928445 -0.750891 -0.710215 -0.807813 -0.822346 -0.77764 -0.709877 -0.575222 -0.493454 -0.376919 -0.306043 -0.257428 -0.188016 -0.10834 -0.0342066 0.0439051 0.110719 0.165434 0.222733 0.275681 0.34719 0.399739 0.461911 0.533816 0.59513 0.657746 0.723753 0.811218 0.88988 0.968461 1.02201 1.06729 1.09407 1.10829 1.11057 1.10126 1.07178 1.0186 0.952899 0.883365 0.823005 0.755649 0.697319 0.613707 0.536993 0.422461 0.315788 0.202289 0.102923 0.00143785 -0.0795531 -0.163722 -0.239539 -0.283277 -0.335088 -0.38687 -0.449903 -0.513803 -0.589591 -0.653954 -0.71816 -0.763121 -0.824242 -0.919276 -0.95258 -0.771066 -0.748065 -0.832063 -0.834241 -0.792933 -0.700813 -0.568574 -0.468605 -0.345628 -0.24509 -0.185386 -0.101363 -0.0194249 0.053275 0.135381 0.207258 0.268585 0.325464 0.380305 0.4501 0.507508 0.554877 0.615173 0.667771 0.713826 0.777631 0.865562 0.949241 1.02698 1.07819 1.12089 1.14093 1.15339 1.14724 1.13897 1.10898 1.06011 0.997433 0.930255 0.881176 0.822436 0.754278 0.676475 0.609835 0.507873 0.408526 0.305401 0.211143 0.114557 0.0178924 -0.0620747 -0.139842 -0.192351 -0.254497 -0.330228 -0.413091 -0.485916 -0.560744 -0.622125 -0.710805 -0.781891 -0.860021 -0.940691 -0.967993 -0.793485 -0.777897 -0.862552 -0.858543 -0.800325 -0.692799 -0.553409 -0.424053 -0.288131 -0.17993 -0.10964 -0.019278 0.0634968 0.148648 0.224206 0.297153 0.35636 0.417487 0.477816 0.547319 0.601964 0.647262 0.707136 0.76604 0.808269 0.869536 0.952551 1.03147 1.09855 1.1455 1.181 1.19733 1.2083 1.20037 1.19083 1.16272 1.11852 1.06084 0.994262 0.945775 0.890052 0.830146 0.755885 0.688081 0.59571 0.507925 0.420031 0.328799 0.229539 0.13986 0.0567128 -0.0380893 -0.0960397 -0.1738 -0.262396 -0.354149 -0.456667 -0.539746 -0.606407 -0.707327 -0.794444 -0.889767 -0.964379 -0.979064 -0.810906 -0.805548 -0.888019 -0.868827 -0.775189 -0.639608 -0.487242 -0.345343 -0.200578 -0.0928109 -0.010954 0.0751495 0.165179 0.245177 0.324909 0.403255 0.475837 0.544017 0.596854 0.649527 0.694676 0.734233 0.790316 0.848259 0.892056 0.942301 1.03205 1.09749 1.15983 1.20684 1.23556 1.24792 1.2515 1.24613 1.23791 1.211 1.17634 1.12292 1.06158 1.01318 0.959751 0.915245 0.845753 0.777295 0.687596 0.587971 0.503512 0.417764 0.33153 0.246396 0.166904 0.0767422 -0.00868204 -0.0940713 -0.191719 -0.30157 -0.409925 -0.513172 -0.58903 -0.707172 -0.802576 -0.916014 -0.99685 -1.00998 -0.832354 -0.839643 -0.903339 -0.875484 -0.766506 -0.622567 -0.457316 -0.301447 -0.148767 -0.0262596 0.0475189 0.151249 0.24104 0.342843 0.421878 0.497752 0.570809 0.629577 0.677767 0.732767 0.775418 0.812562 0.869869 0.925447 0.975338 1.03018 1.10738 1.16897 1.22451 1.27076 1.29607 1.30274 1.30797 1.30981 1.30276 1.27835 1.24413 1.20522 1.15152 1.1145 1.06047 1.01285 0.953849 0.88507 0.790932 0.698447 0.608565 0.537093 0.455971 0.384148 0.29507 0.203692 0.101511 0.00923824 -0.123332 -0.253933 -0.355696 -0.465924 -0.563905 -0.688724 -0.808965 -0.914929 -1.00377 -1.01966 -0.863899 -0.879875 -0.939589 -0.893128 -0.77746 -0.620826 -0.447245 -0.270473 -0.114091 0.014355 0.0812195 0.196994 0.308552 0.4061 0.492298 0.559266 0.627219 0.685382 0.725015 0.779205 0.820158 0.858081 0.91245 0.969711 1.01409 1.06104 1.13268 1.1922 1.23865 1.28719 1.30887 1.31585 1.3203 1.32304 1.31506 1.29069 1.26592 1.22682 1.18167 1.14301 1.09013 1.04467 0.984284 0.923408 0.844897 0.763695 0.687899 0.612772 0.527497 0.461475 0.374732 0.273594 0.167244 0.0718257 -0.0622781 -0.211497 -0.336567 -0.449678 -0.556304 -0.693021 -0.822613 -0.944615 -1.03189 -1.03204 -0.892258 -0.920406 -0.970746 -0.920529 -0.793448 -0.623541 -0.435406 -0.260241 -0.109975 0.0273478 0.12091 0.25528 0.365254 0.466391 0.54628 0.603245 0.669124 0.716059 0.762265 0.811628 0.848014 0.884673 0.936809 0.997367 1.03872 1.08982 1.15345 1.20309 1.23731 1.28184 1.30269 1.31252 1.317 1.31804 1.31404 1.29737 1.27606 1.23952 1.19595 1.16239 1.11381 1.07524 1.01691 0.959425 0.880357 0.805131 0.735373 0.663455 0.570213 0.505467 0.422517 0.32316 0.226474 0.120354 -0.0157368 -0.179862 -0.330891 -0.466554 -0.560176 -0.707857 -0.839525 -0.962269 -1.05812 -1.04833 -0.92046 -0.947611 -0.972646 -0.904972 -0.774292 -0.600253 -0.414403 -0.244697 -0.0911685 0.061297 0.175225 0.304075 0.407292 0.508698 0.568462 0.632947 0.711996 0.75301 0.78629 0.835091 0.869898 0.905964 0.959125 1.01384 1.04543 1.09623 1.15473 1.19599 1.23614 1.27363 1.29419 1.30568 1.30499 1.30576 1.29811 1.28587 1.26676 1.23367 1.2013 1.17676 1.1285 1.09971 1.04651 0.989728 0.915711 0.838835 0.770526 0.701898 0.615143 0.560249 0.480227 0.38099 0.290804 0.178974 0.0519111 -0.121629 -0.273111 -0.448644 -0.555236 -0.710365 -0.856301 -0.976743 -1.07255 -1.06178 -0.913374 -0.944436 -0.971789 -0.890542 -0.744807 -0.577205 -0.395791 -0.219547 -0.0576955 0.105159 0.221955 0.351522 0.448945 0.536717 0.595805 0.673264 0.739054 0.781223 0.8199 0.872818 0.909251 0.940974 0.985153 1.0353 1.07124 1.11235 1.1652 1.20781 1.24213 1.27877 1.29023 1.30278 1.303 1.30203 1.29407 1.27888 1.25785 1.23263 1.2077 1.18194 1.14053 1.11033 1.06277 1.00785 0.933706 0.866127 0.797463 0.73682 0.644922 0.599548 0.537925 0.445975 0.350803 0.236532 0.0959949 -0.071915 -0.22988 -0.412917 -0.552938 -0.698577 -0.851295 -0.982941 -1.06798 -1.05729 -0.836401 -0.839306 -0.902435 -0.822507 -0.68732 -0.530547 -0.353945 -0.182664 -0.0173993 0.141397 0.256217 0.379365 0.467326 0.538025 0.603822 0.674874 0.737513 0.775201 0.819081 0.86969 0.903266 0.931152 0.980274 1.01875 1.05624 1.08725 1.13482 1.15865 1.19601 1.23196 1.24999 1.2682 1.2633 1.25606 1.2472 1.24103 1.21092 1.19936 1.17902 1.16215 1.13076 1.1011 1.05743 1.02065 0.947871 0.879189 0.820255 0.764362 0.678916 0.620439 0.568953 0.479278 0.389445 0.266989 0.12951 -0.0351023 -0.190728 -0.376485 -0.535957 -0.702562 -0.849079 -0.994716 -1.05067 -1.01005 -0.782487 -0.838261 -0.835256 -0.762272 -0.669712 -0.560162 -0.420274 -0.323771 -0.193215 -0.091469 -0.019903 0.0671832 0.13136 0.178392 0.221523 0.27041 0.320832 0.348577 0.378454 0.411299 0.437512 0.453423 0.498875 0.52905 0.552654 0.57348 0.591509 0.615555 0.643509 0.679365 0.686507 0.695214 0.702847 0.700203 0.697605 0.688413 0.661756 0.645086 0.63302 0.6147 0.587062 0.57509 0.556996 0.533856 0.482814 0.439117 0.380783 0.33375 0.277184 0.231458 0.198387 0.133931 0.0758791 0.0043298 -0.0853323 -0.194659 -0.296515 -0.431075 -0.565428 -0.697833 -0.804747 -0.920432 -0.964368 -0.832183
